tree
version=v4
num_class=1
num_tree_per_iteration=1
label_index=0
max_feature_idx=27
objective=binary sigmoid:1
feature_names=ma_spread_pct full_spread fast_slow_gap full_ratio_min48 spread_mean8 spread_mean24 spread_chg8 spread_chg24 spread_pos96 dense_run_len dense_frac48 ext_up close_vs_ema55 close_vs_ema200 order_score slow_slope_12 volume_ratio volume_z vol_ratio_mean8 atr_pct atr_pct_ratio96 pre_range48 pre_range168 drawdown24 ret_4 ret_12 ret_24 ret_48
feature_infos=[5.7736914140683314e-05:0.0044983695750603001] [0.00027208632998709998:0.0087987894771569992] [3.8107598716420497e-08:0.0055999932530467998] [1:1.7987761195348404] [0.0002097065312641:0.0078473663583799001] [0.00030481727323490002:0.0105045215914676] [-0.0073239647537830998:0.0039275131799554001] [-0.017956537359594901:0.0039581928273007003] [0:1] [0:218] [0:1] [-0.0029946198147264998:0.011984859447041] [-0.0029825582346724999:0.015939344990638801] [-0.0096961017373231005:0.019837512389939901] [3:4] [-0.0013544015982582:0.0012281683374053001] [0.50027914502657767:13.384693298854788] [-1.2054818653703054:8.9884330978637905] [0.25747662697472051:5.920506717000932] [0.0015008613940496001:0.012340323065246401] [0.38506863697197141:2.1766626120586401] [0.0057669290196219001:0.047999999999999897] [0.0105313547151746:0.1099940863394441] [0:0.0119880923646311] [-0.0107620709714951:0.029183400267737501] [-0.0102643856920684:0.0274611398963731] [-0.0116353203697801:0.0356332274171582] [-0.027033015732328799:0.037998624484181599]
tree_sizes=1743 1755 1765 1763 1771 1768 1759 1757 1768 1753 1768 1770 1772 1765 1767 1775 1770 1753 1772 1774 1772 1777 1762 1757 1763

Tree=0
num_leaves=15
num_cat=0
split_feature=13 19 24 12 24 19 6 15 27 22 5 18 8 13
split_gain=91.1864 39.4777 26.576 17.9747 13.6625 12.5918 12.2711 11.5858 11.317 11.0643 10.5195 10.2752 9.49319 10.0656
threshold=-0.0014987410186064999 0.0043670272204917506 0.0017524838330950502 0.00088284966207250013 -0.00084620300637469994 0.0047278166502992503 -0.00054296972550459989 -0.00024370750633404998 0.022795138025364103 0.042442950179602507 0.0017084931031619503 0.74859537337126414 0.055950682112418861 0.0028153942426936006
decision_type=2 2 2 2 2 2 2 2 2 2 2 2 2 2
left_child=2 3 -1 10 -3 -4 -5 -6 9 -9 12 -11 13 -2
right_child=1 4 5 6 7 -7 -8 8 -10 11 -12 -13 -14 -15
leaf_value=-0.92750075005274335 -0.91558814796904708 -0.92316940693542038 -0.87144074984811393 -0.88032116690433815 -0.90653130749457433 -0.92344625967844551 -0.86058539505680698 -0.85433878081039472 -0.83441897301091061 -0.91925872150161603 -0.91207782487606726 -0.88694573352753769 -0.82349950789640669 -0.84439111716861759
leaf_weight=214.3542306125164 13.384269922971731 46.536076962947845 35.828661024570465 151.55111789703369 112.63377919793129 16.061123907566071 169.05362471938133 18.943889737129211 9.0601211786270124 30.680864900350571 45.094694048166275 109.13327783346176 6.1773553490638724 6.589179039001464
leaf_count=1041 65 226 174 736 547 78 821 92 44 149 219 530 30 32
internal_value=-0.894816 -0.885557 -0.919758 -0.874873 -0.898382 -0.887767 -0.869839 -0.894184 -0.88588 -0.889179 -0.897565 -0.894157 -0.872842 -0.890796
internal_weight=985.082 718.838 266.244 391.85 326.988 51.8898 320.605 280.452 167.818 158.758 71.2455 139.814 26.1508 19.9734
internal_count=4784 3491 1293 1903 1588 252 1557 1362 815 771 346 679 127 97
is_linear=0
shrinkage=1


Tree=1
num_leaves=15
num_cat=0
split_feature=23 13 20 19 19 11 20 4 21 26 16 17 18 7
split_gain=79.4526 59.8051 21.1681 25.4075 14.4211 15.3972 12.6635 11.0557 12.0945 10.2039 9.03297 8.97163 12.9026 13.3306
threshold=0.0035967180402677002 -0.0014119752250439999 0.62806546313184053 0.0053042611087476509 0.0047056442188674512 -0.0014756769505138998 0.84401481673087086 0.0035229980652910502 0.018442817434986603 0.0083696965316231511 0.58752109426067622 1.3346393411395059 0.98201245551464467 -0.0041174993250481491
decision_type=2 2 2 2 2 2 2 2 2 2 2 2 2 2
left_child=2 -2 -1 6 5 -3 11 8 -7 -9 -8 12 13 -4
right_child=1 4 3 -5 -6 7 10 9 -10 -11 -12 -13 -14 -15
leaf_value=-0.028538999434745711 -0.030632391108017767 -0.018717522639494451 -0.024189445989552243 -0.0095947554113879549 -0.008889945751791339 0.025971166443687316 -0.029160576594197775 0.02257025493062214 -0.0021588282515213894 0.079919064057380723 0.023300004787500262 -0.010964624230888285 0.065147670342843939 0.040015496084057446
leaf_weight=19.657848328351974 222.45405408740044 40.071979403495789 9.1140375137329084 47.070321872830391 197.06511400640011 61.27698427438736 7.8927045017480841 32.968873739242554 98.524300023913383 9.7529142796993238 136.79067988693714 6.8577870726585379 49.169075593352318 44.77193395793438
leaf_count=95 1093 195 44 229 959 296 38 159 476 47 659 33 237 216
internal_value=0.000328835 -0.00956982 0.0206922 0.023984 0.00113249 0.00927701 0.0302054 0.0148809 0.00872226 0.0371908 0.0202577 0.0429993 0.0466612 0.0289133
internal_weight=983.439 662.114 321.324 301.667 439.66 242.595 254.596 202.523 159.801 42.7218 144.683 109.913 103.055 53.886
internal_count=4776 3225 1551 1456 2132 1173 1227 978 772 206 697 530 497 260
is_linear=0
shrinkage=0.05


Tree=2
num_leaves=15
num_cat=0
split_feature=23 13 20 19 15 11 1 13 24 1 18 20 7 18
split_gain=80.9839 44.7253 18.6002 23.9656 11.3985 14.9817 11.5043 10.9004 9.92478 9.92445 12.8252 9.63693 9.51465 9.24697
threshold=0.0040944079150649513 -0.0014119752250439999 0.63960829526477259 0.0047278166502992503 -8.3602077432243225e-05 -0.0013857709634868497 0.0069331497284082508 -0.0030982234971371997 0.0024837028686342504 0.0025602819028133004 1.0142942097713201 0.9372162304184618 -0.0055105507913869494 0.91227496947006892
decision_type=2 2 2 2 2 2 2 2 2 2 2 2 2 2
left_child=2 -2 -1 7 9 -6 12 -4 -8 10 -3 13 -7 -5
right_child=1 4 3 11 5 6 8 -9 -10 -11 -12 -13 -14 -15
leaf_value=-0.022322589854038215 -0.02970335629995546 0.052728136986431917 -0.0027774025695238487 -0.017949793180371307 -0.01977708049268238 -0.017013538914137576 0.0073682715546105051 0.032262280335402259 0.078705319296313997 -0.021890620382302869 -0.030650436392591462 -0.015266151866221822 0.010240522928162679 0.036597817210795788
leaf_weight=25.462795719504356 215.50050468742847 10.115465834736826 24.365791767835617 10.864027991890906 55.216567695140839 37.716127991676331 9.5156743526458758 231.90830636024475 9.5152916908264142 91.352599143981934 7.0239044576883307 51.140837326645851 185.66356888413429 22.512873440980911
leaf_count=124 1073 49 118 53 271 183 46 1103 46 445 34 249 896 109
internal_value=-0.000365671 -0.0113491 0.0182559 0.0213442 -0.00156064 0.00350312 0.00886537 0.028933 0.0451846 -0.0153572 0.0187527 -0.00173563 0.00558355 0.0188372
internal_weight=987.874 621.62 366.255 340.792 406.119 297.627 242.411 256.274 19.031 108.492 17.1394 84.5177 223.38 33.3769
internal_count=4799 3043 1756 1632 1970 1442 1171 1221 92 528 83 411 1079 162
is_linear=0
shrinkage=0.05


Tree=3
num_leaves=15
num_cat=0
split_feature=23 13 21 21 24 24 13 24 20 7 7 6 4 1
split_gain=67.7639 48.4765 20.9015 12.8879 11.5967 11.4672 12.9586 10.0004 9.63169 10.1051 8.97844 8.85778 8.74336 10.0859
threshold=0.0027081675399336005 -0.0014583474028545998 0.035385375535768655 0.018442817434986603 -0.0029348465220546999 0.0067533750302451508 -0.0041384879338700496 -0.00081604604547674993 0.73882578691330159 -0.0055105507913869494 -0.0047754921709428988 0.00044095296580585005 0.0038506711876461004 0.0032664466899508505
decision_type=2 2 2 2 2 2 2 2 2 2 2 2 2 2
left_child=2 7 5 4 -3 6 -1 -2 -7 -10 -8 -11 13 -5
right_child=1 3 -4 12 -6 8 10 -9 9 11 -12 -13 -14 -15
leaf_value=-0.029044913095001276 -0.034341796438767745 -0.027538314513707203 -0.028851146917852229 0.0052497675358803971 0.022495780337178275 -0.042501254369158623 -0.0050958411106288605 -0.0130058836762145 0.070484038832218154 -0.0023312076598176537 0.042206458183887796 0.035387708236644007 0.010447845546464222 -0.01353426942231388
leaf_weight=6.76839356124401 145.0221067070961 12.320985600352286 17.390545248985291 109.46695405244827 94.40078692138195 6.553372159600257 10.658593118190764 90.95464551448822 6.9071843177080146 45.576778903603554 127.87764053046703 22.549200877547264 92.965741068124771 202.4883663803339
leaf_count=33 732 60 84 531 449 31 51 454 33 217 603 107 450 985
internal_value=-3.91014e-05 -0.00751214 0.0227694 0.00114481 0.0165173 0.0268352 0.0352308 -0.0262077 0.0116372 0.0168624 0.0385567 0.0104848 -0.00293752 -0.00694713
internal_weight=991.901 747.62 244.282 511.643 106.722 226.891 145.305 235.977 81.5865 75.0332 138.536 68.126 404.921 311.955
internal_count=4820 3661 1159 2475 509 1075 687 1186 388 357 654 324 1966 1516
is_linear=0
shrinkage=0.05


Tree=4
num_leaves=15
num_cat=0
split_feature=11 19 23 13 27 23 15 5 24 15 5 17 20 3
split_gain=52.0733 27.3004 20.4852 20.5071 15.9166 12.7599 12.3894 10.3538 13.94 12.8181 11.8126 11.6605 10.0102 10.0991
threshold=-0.00090029937386054985 0.0047278166502992503 0.0027081675399336005 -0.0022721651716116997 -0.0071554717877178493 0.0030698429425559501 -0.00014616566345554999 0.0037057539771225005 -0.00062422361700574991 5.1413387089804814e-05 0.0027285921216526005 1.0000000180025095e-35 0.62806546313184053 1.0411353788145223
decision_type=2 2 2 2 2 2 2 2 2 2 2 2 2 2
left_child=6 2 12 -4 -5 -6 -1 9 -9 -3 11 -11 -2 -14
right_child=1 7 3 4 5 -7 -8 8 -10 10 -12 -13 13 -15
leaf_value=-0.03723116320472649 -0.015726191059345748 -0.026024933052843709 -0.020666735092864527 -0.049469262575220635 -0.024430140455539137 0.017081922091255579 -0.01258878590956415 -0.035120138219203172 0.0087390311554397925 -0.0046559149049709304 -0.019473524130202313 0.06767751711244438 0.039079108919675254 0.014417827372193987
leaf_weight=85.448240399360657 13.122705072164534 101.38850815594196 63.644827634096146 9.4782970100641233 19.356159940361977 217.06459707021713 128.49544323980808 20.172932103276253 124.66314302384853 10.70806433260441 20.988858968019485 10.349216237664221 98.338240176439285 74.358859643340111
leaf_count=438 64 501 320 46 91 1038 638 101 609 52 102 50 457 346
internal_value=-0.000754762 0.00521908 0.0123292 0.00442227 0.0109733 0.0135947 -0.0225583 -0.00699933 0.00243135 -0.0164731 0.0066295 0.032351 0.0254066 0.0286047
internal_weight=997.578 783.634 495.364 309.544 245.899 236.421 213.944 288.271 144.836 143.435 42.0461 21.0573 185.82 172.697
internal_count=4853 3777 2362 1495 1175 1129 1076 1415 710 705 204 102 867 803
is_linear=0
shrinkage=0.05


Tree=5
num_leaves=15
num_cat=0
split_feature=13 19 11 11 0 7 12 23 9 19 24 11 26 11
split_gain=58.1078 23.6245 24.8251 23.057 14.3551 15.2142 11.6991 13.7837 11.3748 10.1542 9.21643 11.0709 9.02546 16.052
threshold=-0.0014987410186064999 0.0047056442188674512 -0.0011093088167994497 0.00012160038780045002 0.0029794074955075004 -0.0047754921709428988 0.0009876344906439502 0.0021679238719055 17.500000000000004 0.0039060019310681007 0.00039304399033905006 -0.00052315993313094983 0.0040845314291954515 -0.00010267435519619999
decision_type=2 2 2 2 2 2 2 2 2 2 2 2 2 2
left_child=3 2 -2 -1 5 9 -5 -8 -7 -4 11 -10 13 -6
right_child=1 -3 4 6 12 8 7 -9 10 -11 -12 -13 -14 -15
leaf_value=-0.031393056437602915 -0.016475945570480814 -0.0047726889126572516 -0.043695817060339745 0.058375303388640165 0.062539656615624772 0.0080455969625842956 0.035553725672149289 -0.016129071893717969 0.0066423624364767529 0.010608912297449135 0.020233103557937841 0.077718891572375534 0.041636509369669956 -0.015953338788786988
leaf_weight=169.93058770895004 58.541048929095268 274.15080231428146 17.953462511301041 6.9901321083307257 8.4632233679294604 160.05609023571014 15.391959786415098 59.794100552797318 8.2132946550846118 15.184653669595717 73.167566299438477 16.753925949335098 82.937563747167587 20.018222495913506
leaf_count=879 289 1343 86 35 40 753 72 300 39 73 339 78 385 95
internal_value=-0.000262228 0.00684121 0.0137389 -0.0209294 0.0181607 0.0122498 0.000825587 -0.00522087 0.0163487 -0.0192303 0.0296733 0.0554936 0.0333697 0.00870093
internal_weight=987.547 735.44 461.289 252.107 402.748 291.329 82.1762 75.1861 258.191 33.1381 98.1348 24.9672 111.419 28.4814
internal_count=4806 3520 2177 1286 1888 1368 407 372 1209 159 456 117 520 135
is_linear=0
shrinkage=0.05


Tree=6
num_leaves=15
num_cat=0
split_feature=13 23 19 2 2 20 1 12 20 20 23 22 13 8
split_gain=47.7449 25.3542 14.7339 10.3605 9.58676 9.17741 8.78942 9.99786 8.76626 9.43043 11.2649 9.78866 7.871 8.56668
threshold=-0.0037160545690166995 0.0027081675399336005 0.0059171943130927511 0.0037910767269701503 0.00042339102325545004 0.62135244591857219 0.0020858119847216006 -0.00043916106860149995 0.62135244591857219 0.94809526950073841 0.0017610802808631502 0.043979039053648757 0.011023040528796851 0.37372037520535634
decision_type=2 2 2 2 2 2 2 2 2 2 2 2 2 2
left_child=3 2 4 -1 -2 -3 7 -7 -6 12 -11 -12 13 -10
right_child=1 5 -4 -5 8 6 -8 -9 9 10 11 -13 -14 -15
leaf_value=-0.046900950996029499 -0.0073867894335348742 -0.029578498070500354 -0.022568022034360799 -0.016842462197059621 -0.020146106358415891 -0.015906125631401594 -0.0018215512955398186 0.026517873385156095 0.04356664189103452 -0.0044767344763660408 0.063647394507308205 -0.0055223388328847463 -0.0091264666597281729 5.259501881364487e-05
leaf_weight=47.127410411834717 24.406934157013893 25.531308025121689 19.506724208593369 75.683758839964867 9.3039931654930097 17.53296272456646 523.60194335877895 56.839658796787262 106.06172549724579 39.51637464761734 13.732539445161821 7.6058335006237021 8.7908000946044904 12.649623095989226
leaf_count=249 113 126 96 391 45 90 2561 271 486 184 63 36 41 57
internal_value=0.000380521 0.00453198 0.0182476 -0.0286627 0.021918 -0.000802792 0.000473155 0.0164383 0.0255555 0.0279074 0.0114588 0.0398491 0.0356078 0.0389691
internal_weight=987.892 865.08 241.575 122.811 222.068 623.506 597.975 74.3726 197.661 188.357 60.8547 21.3384 127.502 118.711
internal_count=4809 4169 1121 640 1025 3048 2922 361 912 867 283 99 584 543
is_linear=0
shrinkage=0.05


Tree=7
num_leaves=15
num_cat=0
split_feature=13 23 2 16 24 15 0 13 1 23 26 12 1 9
split_gain=47.6837 21.7584 14.5851 11.4869 14.3406 11.4462 14.5813 10.6293 10.3259 10.6775 9.58184 9.52714 8.78723 7.93515
threshold=-0.0024911662239603997 0.0040944079150649513 0.0037910767269701503 0.58752109426067622 0.0054797806681841513 -0.00027323807170799992 0.00088236027296330008 -0.0037869813626748498 0.0071119558399295509 0.0068535243662146009 0.010140892342303752 0.0042795696748783507 0.0012881429199308001 12.500000000000002
decision_type=2 2 2 2 2 2 2 2 2 2 2 2 2 2
left_child=2 3 -1 -2 12 6 -3 13 -7 -10 -6 -9 -5 -4
right_child=1 5 7 4 10 8 -8 11 9 -11 -12 -13 -14 -15
leaf_value=-0.038005093312995786 -0.022470172884863398 0.040660437613969772 -0.033453295535189866 -0.01545668706037027 -0.0063186270110815457 -0.00073839344041377072 -0.026104348361455983 0.041258863240518938 0.081140466828253183 0.0049302199497581883 0.018613967188363365 -0.020093210679575545 0.028927300164809745 -0.0010529448106402
leaf_weight=88.15136644244194 19.514808595180511 8.2553074657917005 42.428353130817413 11.355166763067244 84.028049126267433 354.79190638661385 75.731709510087967 15.288737609982492 6.9814720302820232 11.165534779429434 69.608834326267242 9.5653370469808561 163.53355033695698 33.57253922522068
leaf_count=469 92 41 223 52 395 1727 377 75 33 54 328 48 754 173
internal_value=-0.000718481 0.00459423 -0.0232501 0.0139944 0.0162221 -0.00258081 -0.0191406 -0.0101071 0.00118973 0.0369561 0.005025 0.017783 0.025974 -0.0193404
internal_weight=993.973 804.966 189.006 348.04 328.526 456.926 83.987 100.855 372.939 18.147 153.637 24.8541 174.889 76.0009
internal_count=4841 3853 988 1621 1529 2232 418 519 1814 87 723 123 806 396
is_linear=0
shrinkage=0.05


Tree=8
num_leaves=15
num_cat=0
split_feature=23 13 20 19 23 22 9 24 2 6 19 4 13 14
split_gain=50.5666 26.8027 13.0391 11.8153 11.7227 14.1409 11.0104 10.9759 10.0446 10.0282 10.0925 10.2806 9.82131 9.68915
threshold=0.0048787608598330002 -0.0012056597122511498 0.63522099368996021 0.0067020939513646009 0.0027081675399336005 0.022560861836496453 1.0000000180025095e-35 0.0057700432184529509 0.0046521681893788016 -0.0013924698257503497 0.0046141241756062013 0.0033449893253516007 0.0090136817189356028 3.5000000000000004
decision_type=2 2 2 2 2 2 2 2 2 2 2 2 2 2
left_child=2 -2 -1 4 7 -6 8 -4 -7 13 11 -11 -12 -3
right_child=1 9 3 -5 5 6 -8 -9 -10 10 12 -13 -14 -15
leaf_value=-0.018792064337590952 -0.024123050450212985 0.0031136748287928146 0.034283939645666138 -0.023357999830995083 0.067189419574110135 0.032317789447534349 -0.0037119027876028735 0.012379030860526446 -0.029453852010750403 -0.0042776107764831975 -0.025479652053239366 0.038759017300327242 0.027648827781573782 0.036875108225028895
leaf_weight=28.753938838839531 191.41308310627937 124.24823802709579 129.95798136293888 17.893946036696434 8.4751317799091321 44.501241222023964 123.14412939548492 104.54866454005241 6.8908693194389334 86.120614290237427 83.571197748184204 15.510670423507689 8.8729706853628141 24.694427847862244
leaf_count=142 1019 604 586 89 40 213 594 486 34 414 415 74 43 119
internal_value=0.00129158 -0.00918647 0.0133496 0.0155104 0.017228 0.00768377 0.00442799 0.0246122 0.0236311 -0.000805575 -0.00827679 0.00260417 -0.020139 0.00891986
internal_weight=998.597 534.431 464.166 435.412 417.518 183.011 174.536 234.507 51.3921 343.018 194.075 101.631 92.4442 148.943
internal_count=4872 2688 2184 2042 1953 881 841 1072 247 1669 946 488 458 723
is_linear=0
shrinkage=0.05


Tree=9
num_leaves=15
num_cat=0
split_feature=13 23 20 15 7 24 20 8 4 1 2 13 2 1
split_gain=43.9294 22.5895 18.5927 12.3344 11.7794 11.3514 10.7765 10.6763 9.36377 9.20609 11.9942 10.6153 8.81333 11.2885
threshold=-0.0037160545690166995 0.0035967180402677002 0.94996617824013485 -0.00014996606987184997 -0.0072650835329652495 0.0013745556386266001 0.62806546313184053 0.49218081541368613 0.0013476268680811 0.00258861935126535 0.0034816177378822004 0.0026118888941897003 0.0020863789530619504 0.0069880126657897506
decision_type=2 2 2 2 2 2 2 2 2 2 2 2 2 2
left_child=8 2 4 9 -2 -4 -6 -5 -1 11 -11 -3 -8 -14
right_child=1 3 5 7 6 -7 12 -9 -10 10 -12 -13 13 -15
leaf_value=-0.0069441441368461379 -0.034199410439813248 -0.01026471546167494 0.039959151419453109 0.0025505440341916856 -0.013916155089714877 -0.0073155787062261744 0.018674446439195122 0.062531539818374643 -0.036935097492360437 -0.025912379363197187 0.0050807153698028164 0.06491396489923372 0.052238094797493487 0.013711963046229276
leaf_weight=39.034245073795319 7.4431495368480673 11.071654975414278 13.61714994907379 369.2180380821228 14.571228042244909 95.737655982375145 91.996718749403954 6.5746253579854956 80.500760868191719 103.6520743817091 44.073166117072105 6.8744244128465644 64.560919001698494 28.040419906377792
leaf_count=206 35 55 62 1798 72 449 415 31 440 527 224 33 293 127
internal_value=0.000986467 0.00495436 0.0155555 -0.00124916 0.0243444 -0.00112005 0.0266922 0.00376311 -0.0272804 -0.0125728 -0.0166937 0.0204395 0.0299553 0.0408432
internal_weight=976.966 857.431 315.967 541.464 206.612 109.355 199.169 375.793 119.535 165.671 147.725 17.9461 184.598 92.6013
internal_count=4767 4121 1453 2668 942 511 907 1829 646 839 751 88 835 420
is_linear=0
shrinkage=0.05


Tree=10
num_leaves=15
num_cat=0
split_feature=11 19 0 15 23 22 1 20 1 13 25 6 15 26
split_gain=38.5743 20.6494 16.9039 12.7713 11.9834 10.808 13.5724 10.2751 10.0942 9.0345 8.78048 8.66715 8.5262 8.22483
threshold=-0.00082674589834669991 0.0047278166502992503 0.0031004403408455001 0.0006283588086990001 0.0027081675399336005 0.082816354324812755 0.0020247161942583505 0.65420313879440783 0.0033574141122487502 -0.0024911662239603997 0.010780057136401051 -0.00080320243735809997 0.00037712823542495005 0.0039004123095937506
decision_type=2 2 2 2 2 2 2 2 2 2 2 2 2 2
left_child=7 2 4 8 12 6 -6 -1 11 -4 -10 13 -2 -3
right_child=1 3 9 -5 5 -7 -8 -9 10 -11 -12 -13 -14 -15
leaf_value=-0.052338403783142196 0.0099308106600632298 0.056506883200282423 -0.020150321290103284 0.033259465509028925 0.02459615974015722 0.05008466208367255 -0.0091206991131114624 -0.015701865439599137 -0.020954642201922228 0.030589277205840367 0.0013329132933335476 -0.012778345903377571 0.038557210737911546 0.0064805865410685866
leaf_weight=20.767088025808334 108.93312817811966 12.147743493318556 8.81482946872711 18.41308456659317 34.527878105640411 8.7302398979663831 186.14781571924686 179.68831914663315 141.33224600553513 115.28469580411911 63.923308804631233 25.49974100291729 33.670616686344147 22.720910370349884
leaf_count=111 491 59 46 89 160 43 908 944 709 526 316 125 150 111
internal_value=-0.000230834 0.0048004 0.0109475 -0.00593703 0.00558375 -0.00150054 -0.00375806 -0.0197384 -0.00876869 0.026853 -0.0140408 0.00909329 0.0169113 0.0249985
internal_weight=980.602 780.146 496.109 284.037 372.01 229.406 220.676 200.455 265.624 124.1 205.256 60.3684 142.604 34.8687
internal_count=4788 3733 2324 1409 1752 1111 1068 1055 1320 572 1025 295 641 170
is_linear=0
shrinkage=0.05


Tree=11
num_leaves=15
num_cat=0
split_feature=11 19 13 7 20 15 25 16 0 6 15 2 1 24
split_gain=40.0813 18.439 13.5626 13.0678 11.7428 10.073 8.90971 7.96592 11.8141 11.533 8.3307 10.2654 9.80588 9.65494
threshold=-0.0011093088167994497 0.0035693546413897007 -0.0037160545690166995 -0.0047754921709428988 0.62806546313184053 -5.4301672986034604e-05 0.0015380919789723003 0.78064745326851726 0.0037639226107710503 -0.00090117403871779994 1.3542658446219493e-05 0.0025722700374545505 0.0028427967109180001 0.0094852582077927516
decision_type=2 2 2 2 2 2 2 2 2 2 2 2 2 2
left_child=-1 3 -3 -2 5 -5 -6 8 -4 -10 11 -9 -12 -14
right_child=1 2 7 4 6 -7 -8 10 9 -11 12 -13 13 -15
leaf_value=-0.021849835019859348 -0.023961453274157579 -0.03417686603564167 -0.017647574936682422 -0.041276877656542331 0.009748205768831418 0.024316836897743558 0.02856582189912581 -0.0095798582746013782 0.053979247105874983 -0.0083829918007640083 0.045851111886339141 0.012521251588558796 0.00039071134251124909 0.032244938274687378
leaf_weight=169.1036414951086 19.619932591915131 27.904645323753357 100.26806254684925 14.183299452066423 112.56836661696434 8.6842024922370893 146.05026045441628 137.81685899198055 11.855781942605974 16.981009364128113 20.016524136066437 83.542281314730644 90.775454372167587 31.247208461165428
leaf_count=903 95 153 493 72 532 42 662 665 56 83 95 411 432 147
internal_value=0.000243926 0.00481283 -0.000889453 0.0146385 0.0174043 -0.0163917 0.0204442 0.001062 -0.00956094 0.0182061 0.00485191 -0.00121997 0.0142569 0.00874365
internal_weight=990.618 821.514 520.408 301.106 281.486 22.8675 258.619 492.503 129.105 28.8368 363.398 221.359 142.039 122.023
internal_count=4841 3938 2535 1403 1308 114 1194 2382 632 139 1750 1076 674 579
is_linear=0
shrinkage=0.05


Tree=12
num_leaves=15
num_cat=0
split_feature=11 19 4 9 17 0 15 16 11 13 16 16 20 13
split_gain=39.1055 14.2331 13.4036 10.4273 11.0504 10.6972 8.27833 8.84915 8.76807 8.27583 8.66854 10.2921 8.72809 8.23629
threshold=-0.00077028062991649985 0.0047278166502992503 0.0031090268811988001 23.500000000000004 -0.20768607774709433 0.00084022325396730017 -0.00014616566345554999 0.60622553664234091 -0.0014756769505138998 -0.00034181968375549991 0.71077589979974642 1.3244875728565024 0.95897371494202588 0.00046049159106505009
decision_type=2 2 2 2 2 2 2 2 2 2 2 2 2 2
left_child=6 2 3 9 -5 -6 7 -1 -8 -2 -11 12 -12 -4
right_child=1 -3 13 4 5 -7 8 -9 -10 10 11 -13 -14 -15
leaf_value=0.0096370440179133869 -0.012847660264144634 -0.005019277881989209 0.0018254054944217678 0.00089959507764732119 0.012832861169104299 0.058824828348225881 -0.023157095667269655 -0.039980801627469975 0.0032969052888063323 -0.014975383292026641 0.032357489492910896 -0.00078927796496777811 -0.0022937483012947964 0.035986991991915039
leaf_weight=9.9688852280378324 81.156877547502518 279.17094315588474 24.408844977617264 42.861904874444008 27.002713859081268 24.034406080842018 77.486399263143539 66.48066134750843 51.753769934177399 40.956361413002014 62.9261804074049 100.70404036343098 25.214509233832359 63.722594395279884
leaf_count=57 404 1387 118 200 122 108 407 380 255 192 288 458 116 289
internal_value=-0.00117568 0.00399013 0.00909184 0.00521294 0.0197205 0.0352056 -0.0204936 -0.0334698 -0.0126197 0.000782965 0.00563158 0.0101561 0.0225302 0.0266522
internal_weight=977.849 772.159 492.988 404.857 93.899 51.0371 205.69 76.4495 129.24 310.958 229.801 188.845 88.1407 88.1314
internal_count=4781 3682 2295 1888 430 230 1099 437 662 1458 1054 862 404 407
is_linear=0
shrinkage=0.05


Tree=13
num_leaves=15
num_cat=0
split_feature=13 2 1 26 5 19 15 2 8 5 20 21 2 1
split_gain=25.9253 13.5068 15.1806 11.4482 14.9041 10.3405 11.9704 10.9012 10.0059 10.4823 8.19401 14.5817 8.01614 7.70554
threshold=-0.0031841712529647494 0.0038477657814205506 0.0066812575319969503 0.0071708898606847515 0.0017701594028492003 0.0047896059746007011 0.00040806529012000006 0.0046521681893788016 0.10071818757867136 0.0014048027384333001 0.85310363971975711 0.036920774839209608 0.0052191401365694013 0.0067468555210233013
decision_type=2 2 2 2 2 2 2 2 2 2 2 2 2 2
left_child=1 -1 -3 4 8 7 10 -5 -2 -10 11 -7 -4 -6
right_child=3 2 12 5 13 6 -8 -9 9 -11 -12 -13 -14 -15
leaf_value=-0.037200394330379798 0.0045290299807960368 0.025444051238245575 -0.037495730611736978 0.025271448893897132 -0.0090795356257065748 0.046128555962285933 0.031525741693518641 -0.01309304260900529 0.064146067787925712 0.0082219179902398923 -0.012404454196431394 -0.036119987653109711 0.00032381764703391208 0.011632958140758855
leaf_weight=65.175028383731842 97.145211860537529 24.625731959939003 30.977299585938454 124.87224090099335 365.34636859595776 15.841833159327509 24.987230911850929 21.070100843906403 15.860044449567793 17.331747755408287 95.08702240884304 7.0518881082534781 24.907560989260674 50.305622026324272
leaf_count=375 454 133 171 569 1779 77 120 95 71 79 475 35 131 242
internal_value=-0.00106726 -0.0204542 -0.00660774 0.00233609 -0.00192451 0.0103667 0.000787779 0.0196813 0.0127666 0.0360387 -0.00593249 0.0203424 -0.0209304 -0.00655084
internal_weight=980.585 145.686 80.5106 834.899 545.989 288.91 142.968 145.942 130.337 33.1918 117.981 22.8937 55.8849 415.652
internal_count=4806 810 435 3996 2625 1371 707 664 604 150 587 112 302 2021
is_linear=0
shrinkage=0.05


Tree=14
num_leaves=15
num_cat=0
split_feature=11 19 13 15 9 15 17 22 6 6 17 16 23 12
split_gain=33.3279 15.9446 14.1961 11.0199 10.3037 10.1608 9.68271 10.2086 8.56773 9.96806 8.94392 11.0742 8.54547 14.0094
threshold=-0.00082674589834669991 0.0047278166502992503 -0.0028287497779692999 0.00027720172462625004 12.500000000000002 -0.00014616566345554999 -0.38674103307361379 0.052831846740171357 -0.00054296972550459989 -0.0006200942973088999 -0.7623352408788594 0.68303693142782551 0.00079801777897430014 0.010304621949639501
decision_type=2 2 2 2 2 2 2 2 2 2 2 2 2 2
left_child=5 2 4 12 -2 -1 -7 -8 9 -4 -10 -12 13 -3
right_child=1 3 8 -5 -6 6 7 -9 10 -11 11 -13 -14 -15
leaf_value=-0.03099595839886984 -0.032236000537820594 0.073118245667245868 0.010280768769026663 0.014733280974857972 0.0074211733445497686 -0.024943304819998752 -0.0098197221746717175 0.028447439298730504 0.072521156423758698 -0.032059621161055631 -0.010559918684484753 0.023350762035906594 -0.011250713963186219 -0.02218723088222465
leaf_weight=75.527705788612366 28.403647676110268 7.0362725555896741 191.56773146986961 64.452989190816879 36.311115324497223 48.119099289178848 48.910175934433937 25.80009725689888 7.3523153066635123 14.01629802584648 26.777809470891953 199.55416598916054 204.65205407142639 6.7217149436473846
leaf_count=446 153 33 890 310 184 249 252 136 34 65 123 893 1034 33
internal_value=0.00158666 0.00620645 0.0115308 -0.00328722 -0.0102102 -0.0166784 -0.00769529 0.00359647 0.0147497 0.00725287 0.021286 0.0193099 -0.008648 0.0282067
internal_weight=985.203 786.846 503.983 282.863 64.7148 198.357 122.829 74.7103 439.268 205.584 233.684 226.332 218.41 13.758
internal_count=4835 3752 2342 1410 337 1083 637 388 2005 955 1050 1016 1100 66
is_linear=0
shrinkage=0.05


Tree=15
num_leaves=15
num_cat=0
split_feature=11 21 0 15 15 1 15 15 7 20 20 1 7 2
split_gain=29.8429 16.2758 9.72769 12.4085 9.4412 9.21476 8.80665 8.15481 15.5072 9.66472 10.3085 12.4415 10.4388 9.58507
threshold=-0.00077028062991649985 0.022132196660899554 0.0031004403408455001 0.00036902488513960004 -0.00014616566345554999 0.0026146181879851504 -0.00011086173850764998 -4.1798074463139649e-05 -0.0019362630057431997 0.73225397895593747 0.79104275048268258 0.0036475809363094003 0.00062436816335905007 0.0017476999513620004
decision_type=2 2 2 2 2 2 2 2 2 2 2 2 2 2
left_child=4 2 3 5 -1 6 -2 9 -9 -3 11 -11 -12 -13
right_child=1 7 -4 -5 -6 -7 -8 8 -10 10 12 13 -14 -15
leaf_value=-0.030982135165261989 0.039297722616823703 -0.034178368567210966 0.033685546755896946 0.027468880734902185 -0.0086744251905676723 -0.0049440876446735617 0.0043515485396606489 -0.0037493788960518055 0.026339322037153858 0.080118426163672193 -0.0026731646802485342 -0.040113276634413574 -0.032056406975372563 0.026157083239696222
leaf_weight=74.750610619783401 26.847899988293648 28.604649513959885 47.489746019244194 69.625235289335251 130.05109097063541 130.42198969423771 51.960061997175217 128.25865453481674 63.132891088724136 6.33535969257355 174.8337886184454 7.0403887629508999 35.60306116938591 16.032470345497131
leaf_count=448 120 143 211 314 676 625 234 609 295 30 875 33 175 78
internal_value=2.4981e-05 0.004457 0.0129785 0.0093443 -0.0169275 0.00321103 0.0166001 -0.00160568 0.00626107 -0.00721672 -0.00387263 0.0233717 -0.00777251 0.00510921
internal_weight=990.988 786.186 326.345 278.855 204.802 209.23 78.808 459.841 191.392 268.45 239.845 29.4082 210.437 23.0729
internal_count=4866 3742 1504 1293 1124 979 354 2238 904 1334 1191 141 1050 111
is_linear=0
shrinkage=0.05


Tree=16
num_leaves=15
num_cat=0
split_feature=11 21 15 3 23 5 23 2 1 25 17 20 5 6
split_gain=28.7629 14.9356 9.93354 10.2733 18.3911 9.81759 11.2351 9.28755 8.80264 8.47764 8.01914 7.92281 7.51227 9.96634
threshold=-0.00086206423957954994 0.020166781683816002 -0.00023870870247034997 1.0008492163135589 0.0041366222508550507 0.0039502858213300513 0.00087649213647440012 0.00047976047242690004 0.0026146181879851504 0.0017594283318006002 2.7618197798481994 0.63522099368996021 0.0017431019581239003 -0.0019054430897410999
decision_type=2 2 2 2 2 2 2 2 2 2 2 2 2 2
left_child=11 9 5 4 7 8 -7 -4 -3 -2 -11 -1 -5 -14
right_child=1 2 3 12 -6 6 -8 -9 -10 10 -12 -13 13 -15
leaf_value=-0.050942277970208984 0.0035557386490337344 0.032007928648404571 -0.00023225447763722956 0.034282031606401503 0.0046976039389008935 0.059951603588805559 -0.00042070111587930241 0.066293973869090875 -0.018475854396521059 0.02468530908997614 -0.021257278305420992 -0.013939877003047239 0.014347376863779435 -0.010913511672436106
leaf_weight=15.007108122110365 110.39439313113689 8.2890278995037061 6.7615107446908977 13.046311631798742 72.089366093277931 7.6969748586416236 67.52544854581356 22.304571062326431 143.72484336793423 143.84363035857677 9.4199157804250699 175.89092294871807 53.984432399272919 133.94651490449905
leaf_count=88 515 39 31 60 351 35 342 100 727 647 42 974 254 635
internal_value=0.00027309 0.0044712 -0.000376815 0.00555589 0.0184669 -0.00825471 0.00646226 0.0513253 -0.0155319 0.0141696 0.0217421 -0.0170991 -0.00100171 -0.00361962
internal_weight=983.925 793.027 529.369 302.133 101.155 227.236 75.2224 29.0661 152.014 263.658 153.264 190.898 200.977 187.931
internal_count=4840 3778 2574 1431 482 1143 377 131 766 1204 689 1062 949 889
is_linear=0
shrinkage=0.05


Tree=17
num_leaves=15
num_cat=0
split_feature=11 23 19 27 7 20 7 26 21 11 19 17 11 4
split_gain=29.3526 10.5171 10.1118 6.83056 5.70543 15.5936 11.8126 8.13044 8.48281 12.8244 11.5106 9.60578 8.82876 6.94642
threshold=-0.0015145633561735997 0.0027501702231159503 0.0067020939513646009 -0.010935752503341898 -0.0025197745255142998 0.73882578691330159 -0.0036756544751645995 0.014899856733524201 0.016892702441813304 0.0029498153829652005 0.0029620165143773507 0.64757141417093378 0.0012512779517660003 0.0024369772533204504
decision_type=2 2 2 2 2 2 2 2 2 2 2 2 2 2
left_child=-1 2 4 -3 5 -2 13 8 10 12 -6 -11 -10 -7
right_child=1 3 -4 -5 7 6 -8 -9 9 11 -12 -13 -14 -15
leaf_value=-0.023000260280602258 -0.043045630544472802 -0.03763434172376165 -0.039477755553125493 0.00060567265712715198 0.017307698213194379 0.010024067095509031 -0.011293205065972227 -0.018879029234756404 0.011946287001762746 0.0055530446151377593 -0.033898229366396408 0.044593756444276066 0.079015029031415412 0.054427271549470281
leaf_weight=117.53586384654045 14.411985233426092 10.912298947572706 8.3668365627527219 592.1989873945713 63.343320161104202 18.787929221987724 27.656492546200752 12.853393942117689 7.146997436881068 44.641436129808426 12.272805526852606 23.641488209366798 18.07306969165802 16.566835954785347
leaf_count=674 67 56 43 2932 274 86 123 59 32 201 54 106 78 75
internal_value=0.000344777 0.00351826 0.0117446 -0.000147369 0.013542 0.00213493 0.0129797 0.0183572 0.0212816 0.0312867 0.0086628 0.0195186 0.0611892 0.0317557
internal_weight=988.41 870.874 267.763 603.111 259.396 77.4232 63.0113 181.973 169.119 93.503 75.6161 68.2829 25.2201 35.3548
internal_count=4860 4186 1198 2988 1155 351 284 804 745 417 328 307 110 161
is_linear=0
shrinkage=0.05


Tree=18
num_leaves=15
num_cat=0
split_feature=13 5 20 2 1 18 11 19 4 13 5 18 25 15
split_gain=18.6801 18.9527 9.24885 8.96981 11.3001 7.9559 7.3054 9.65048 11.4334 16.1879 9.55729 9.26799 8.88177 8.70334
threshold=-0.0036595116364928496 0.0011736336098450502 0.62806546313184053 0.0038234811794132504 0.006334663330106351 1.0627626599890756 -0.0015417028550049497 0.0047056442188674512 0.0032234097298573503 0.00040246581304385004 0.0036197926445324003 0.77798379193354561 0.0094956206568827511 -0.00013929342210409999
decision_type=2 2 2 2 2 2 2 2 2 2 2 2 2 2
left_child=3 -2 -3 -1 5 -5 -4 8 10 -10 -8 -9 -12 -13
right_child=1 2 6 4 -6 -7 7 11 9 -11 12 13 -14 -15
leaf_value=-0.037034620979217524 0.030965281109025342 -0.024808566298022888 -0.01512033711751375 0.048865501985285678 -0.019855833523955327 -0.017071386060013152 0.00692394336623515 -0.022036083907065157 -0.010330607875064826 0.037524282364432372 -0.02601631183199575 -0.01007693677219095 0.014915386423883806 0.0096757080850034122
leaf_weight=44.419791385531425 50.809514716267586 35.538072466850281 64.024574816226959 11.343084886670114 54.104939743876457 6.6184325814247122 288.2314830571413 60.240591883659363 24.5102199614048 59.125017628073692 45.313435807824135 108.91692031919956 17.80669929087162 112.19851073622704
leaf_count=278 231 181 349 63 307 38 1319 305 119 263 217 558 79 539
internal_value=-0.000893653 0.00164067 -0.000221157 -0.0196037 -0.00849994 0.0249502 0.000928875 0.00238238 0.00704342 0.0235435 0.00306009 -0.00482318 -0.0144166 -5.56022e-05
internal_weight=983.201 866.715 815.906 116.486 72.0665 17.9615 780.367 716.343 434.987 83.6352 351.352 281.356 63.1201 221.115
internal_count=4846 4160 3929 686 408 101 3748 3399 1997 382 1615 1402 296 1097
is_linear=0
shrinkage=0.05


Tree=19
num_leaves=15
num_cat=0
split_feature=24 5 15 15 0 19 2 25 26 4 24 20 21 1
split_gain=20.2069 13.1784 12.4094 11.4509 9.91046 9.55965 9.05034 10.7914 8.64267 13.7096 11.2882 10.5598 9.74207 9.09122
threshold=-0.00081604604547674993 0.0011947143393502503 -0.00014616566345554999 -0.00026487367705924997 0.00084022325396730017 0.0057305837000092511 0.0011476120644129501 0.011099063837787452 0.0072533851014098009 0.0035229980652910502 0.0057106270414155015 0.97428129786085638 0.019491700524586455 0.0045531181767130011
decision_type=2 2 2 2 2 2 2 2 2 2 2 2 2 2
left_child=2 4 -1 5 -2 6 -3 -8 10 -10 -5 13 -12 -11
right_child=1 3 -4 8 -6 -7 7 -9 9 11 12 -13 -14 -15
leaf_value=-0.025688764956646765 0.014606092287343622 -0.029954467673511637 -0.0033498001876092068 0.0081930425840285974 0.063870174438555638 -0.023575393167160393 -0.0028835510569802042 0.028467107574424888 0.0083742096907131157 0.044774610347246405 0.019265675068496357 0.072361593016618805 -0.025445444236997863 -0.020068927388717427
leaf_weight=97.719082236289978 36.857826963067055 21.83986496925354 168.87910261750221 202.79942832887173 13.617912441492079 57.618654057383537 132.08717735111713 33.602115780115128 110.32859873771667 11.897326603531839 15.003116264939306 16.280808418989182 52.133161932229996 8.5265091657638532
leaf_count=580 165 104 866 944 58 303 654 155 509 53 67 76 248 39
internal_value=0.000114069 0.00450795 -0.0116033 0.00260925 0.0288797 -0.00595112 -0.000439707 0.00360706 0.00764433 0.0173545 0.0023107 0.0434098 -0.0153176 0.0180307
internal_weight=979.191 712.593 266.598 662.117 50.4757 245.148 187.529 165.689 416.969 147.033 269.936 36.7046 67.1363 20.4238
internal_count=4821 3375 1446 3152 223 1216 913 809 1936 677 1259 168 315 92
is_linear=0
shrinkage=0.05


Tree=20
num_leaves=15
num_cat=0
split_feature=24 15 23 11 19 25 16 9 21 15 15 26 15 26
split_gain=31.2359 10.0621 9.47374 11.3283 13.0481 8.42334 14.5692 10.8299 9.43706 8.93727 10.7559 8.62127 10.7866 10.659
threshold=-0.00081604604547674993 -6.2537874769841287e-06 0.0027081675399336005 0.0028877776365693005 0.0027655467961720504 0.0094956206568827511 0.6112155599038237 4.5000000000000009 0.020166781683816002 -0.00052878381066299985 -0.00025525397596884994 0.0070550885069541507 1.940501519981375e-05 0.0096464978328936017
decision_type=2 2 2 2 2 2 2 2 2 2 2 2 2 2
left_child=1 -1 3 4 -2 8 -7 -8 9 -4 -11 -10 -13 -14
right_child=2 -3 5 -5 -6 6 7 -9 11 10 -12 12 13 -15
leaf_value=-0.025154238331971581 0.012432487647202631 -0.0055106608954472412 0.043584834641664939 0.0044568775331680242 0.051465588536762731 -0.051794207502097227 0.011143673832807784 0.057918531824522029 -0.013688863412926655 -0.030940578651617465 0.011376066105083689 -0.010232453060731558 0.057439173870275376 0.0050913927478896774
leaf_weight=128.81735622882843 61.727872908115387 132.40021702647209 15.635813131928442 158.50144544243813 32.55219778418541 6.0798324942588797 45.874726012349129 16.30097433924675 179.43941909074783 17.212234571576118 84.861196756362915 52.050926461815834 14.038932278752325 28.14647077023983
leaf_count=756 266 672 80 715 140 31 227 80 900 86 388 266 65 132
internal_value=-0.000500331 -0.0152567 0.00492407 0.0126783 0.0263082 0.000641308 0.0167165 0.0241296 -0.00219758 0.00958927 0.00400943 -0.00728361 0.00492857 0.0234389
internal_weight=973.64 261.218 712.422 252.782 94.2801 459.641 68.2555 62.1757 391.385 117.709 102.073 273.676 94.2363 42.1854
internal_count=4804 1428 3376 1121 406 2255 338 307 1917 554 474 1363 463 197
is_linear=0
shrinkage=0.05


Tree=21
num_leaves=15
num_cat=0
split_feature=23 15 12 25 17 25 24 0 25 26 15 6 2 27
split_gain=15.5549 18.5007 11.8443 9.30233 10.254 9.73546 8.93989 8.27483 7.98011 9.55814 7.11827 8.94856 10.1259 7.28948
threshold=0.0048787608598330002 -4.1798074463139649e-05 0.010619726031874402 0.0014899823203942503 0.84885281397713264 0.0030117900783164005 -0.0031456848518133496 0.0010103755661443501 -0.0041589982608121493 0.0028146018548278 0.0006283588086990001 -0.0028606863789113995 0.0023414668020559502 0.013283489225455702
decision_type=2 2 2 2 2 2 2 2 2 2 2 2 2 2
left_child=2 7 3 4 -1 -5 -3 -2 9 -8 11 -10 13 -13
right_child=1 6 -4 5 -6 -7 8 -9 10 -11 -12 12 -14 -15
leaf_value=-0.0092562272514126465 -0.00038811020093599364 -0.01703216642746317 -0.021088488407142256 0.030795096165217101 0.040325528158969247 0.0082545156913123429 -0.0011587438305443894 -0.022144212817583483 -0.029167300514985384 0.057265488906548138 0.022833472918930731 0.0060575661699804944 -0.015804836924942528 0.042442652464294489
leaf_weight=101.35303258895874 57.42201267182827 49.376224860548973 36.820452466607094 58.255944848060608 10.619597822427748 257.61578704416752 12.611229047179224 182.44998413324356 24.17768482863903 14.626450851559637 34.956835046410561 76.909384652972221 45.79499389231205 15.897013723850248
leaf_count=483 327 264 178 263 50 1167 65 1027 116 70 166 374 223 77
internal_value=-0.000862009 -0.00684715 0.00576193 0.00811647 -0.00423852 0.0124957 0.00202372 -0.0169593 0.00626289 0.0311316 0.00269786 -0.00173928 0.00321994 0.0126761
internal_weight=978.887 514.222 464.665 427.844 111.973 315.872 274.35 239.872 224.974 27.2377 197.736 162.779 138.601 92.8064
internal_count=4850 2709 2141 1963 533 1430 1355 1354 1091 135 956 790 674 451
is_linear=0
shrinkage=0.05


Tree=22
num_leaves=15
num_cat=0
split_feature=23 15 1 18 18 2 8 20 20 12 8 25 18 1
split_gain=17.9774 16.5731 15.3003 14.5563 14.4994 11.6565 11.2118 10.1157 8.95818 8.75987 8.58526 8.45158 7.82728 7.04503
threshold=0.0043708196413303002 -4.1798074463139649e-05 0.0026945995356434005 1.0142942097713201 1.8678306258601927 0.0037910767269701503 0.013691332360913201 0.86936155320012187 0.62806546313184053 0.011128862616699852 0.039197835755455511 0.0085473523794673024 0.54025262103791583 0.0061675012848129004
decision_type=2 2 2 2 2 2 2 2 2 2 2 2 2 2
left_child=8 2 3 -2 5 -4 13 10 -1 12 -8 -3 -10 -7
right_child=1 11 4 -5 -6 6 7 -9 9 -11 -12 -13 -14 -15
leaf_value=-0.023224957290148181 0.040457645473624543 -0.00072888555867608399 -0.032965105317159175 -0.022187943810461519 0.025869507177063773 0.059038482229822081 -0.046383729381007564 -0.036626182520082443 -0.023294817145839374 -0.015641188122205954 0.020209945246304359 0.031845965395561317 0.012664685560070331 -0.0020904469535554973
leaf_weight=21.94991759955883 20.922134429216385 273.17864122986794 131.68946635723114 15.220893949270247 14.863677397370337 7.5317207574844387 5.3072653263807323 33.158389732241631 14.915618240833281 32.422278791666031 19.900628998875618 20.474185436964035 351.85053478181362 10.384723648428915
leaf_count=110 106 1348 752 77 81 42 31 191 69 157 118 98 1581 60
internal_value=-0.000566119 -0.00649177 -0.0156862 0.0141887 -0.0205735 -0.0240006 -0.00829868 -0.0188869 0.00720668 0.00893386 0.00495446 0.00164268 0.0111429 0.0253695
internal_weight=973.77 552.632 258.979 36.143 222.836 207.972 76.2827 58.3663 421.138 399.188 25.2079 293.653 366.766 17.9164
internal_count=4821 2904 1458 183 1275 1194 442 340 1917 1807 149 1446 1650 102
is_linear=0
shrinkage=0.05


Tree=23
num_leaves=15
num_cat=0
split_feature=20 23 16 1 0 27 2 21 4 2 20 10 20 1
split_gain=16.3289 12.3964 13.3728 11.5056 17.0482 13.8968 11.8817 10.4277 10.4416 10.3659 9.9481 9.66796 8.78824 8.16269
threshold=0.62806546313184053 0.0060096756506317515 0.58752109426067622 0.0032664466899508505 0.0005872820548130501 0.012250763062653451 0.0054170993954580507 0.030854349726748703 0.0034536283534512503 0.0035140327377789003 0.77202168377251168 0.093749999999999958 0.65775350240929875 0.0083778325119430019
decision_type=2 2 2 2 2 2 2 2 2 2 2 2 2 2
left_child=-1 2 9 5 -5 -3 7 8 -6 10 -2 -4 -13 -14
right_child=1 3 11 4 6 -7 -8 -9 -10 -11 -12 12 13 -15
leaf_value=-0.028352851214482579 0.015137933183624913 0.00038644631984027642 0.029623739295979497 0.040474597239016946 -0.032534963956229034 0.047836207999218311 0.044096533851754799 -0.0028627421643135881 -0.004528431217383235 0.0158548304777591 -0.052350614077194817 0.05410313940495292 0.0065670301442754932 -0.034159189912847034
leaf_weight=46.744435474276543 6.6529535502195385 88.588542923331261 49.188419744372368 14.460709676146505 104.54678313434124 17.689633592963219 7.6879065036773673 99.130579829216003 49.135485202074051 12.994589686393736 22.076457664370537 8.4838526695966703 428.67681211233139 11.68474794924259
leaf_count=254 32 456 226 78 585 86 42 525 260 64 106 40 1987 58
internal_value=0.000159113 0.0016354 0.00650557 -0.00525877 -0.0106492 0.00865658 -0.0136311 -0.0155534 -0.0236678 -0.0203711 -0.0367386 0.00879354 0.00645001 0.00541144
internal_weight=967.742 920.997 539.758 381.24 274.961 106.278 260.501 252.813 153.682 41.724 28.7294 498.034 448.845 440.362
internal_count=4799 4545 2513 2032 1490 542 1412 1370 845 202 138 2311 2085 2045
is_linear=0
shrinkage=0.05


Tree=24
num_leaves=15
num_cat=0
split_feature=11 24 1 22 0 15 4 26 26 27 27 16 18 27
split_gain=12.6163 8.85248 8.34344 9.51331 9.57117 8.67041 11.7211 7.99968 7.74796 7.11559 13.3789 9.89828 10.7024 6.81884
threshold=-0.0007992320691942999 -0.0039232854459376491 0.0021516890994736503 0.023274652892521102 0.0043738381996233514 -0.00011086173850764998 0.0011938478146308502 0.0034176473465371005 -0.0062842644626581491 0.00015344672781645002 0.00082830438907230007 1.601901402405929 1.2698077201830937 0.0023952130161899008
decision_type=2 2 2 2 2 2 2 2 2 2 2 2 2 2
left_child=8 -2 5 7 9 -3 -7 -4 -1 11 -11 -5 -13 -8
right_child=1 2 3 4 -6 6 13 -9 -10 10 -12 12 -14 -15
leaf_value=0.031858237739056598 -0.040143329764997245 0.041432174812013937 0.072012385935414536 0.0031107119043505167 0.028588151269258833 -0.015948110565718317 0.05472919955750713 7.377440986799e-05 -0.01356806132670256 -0.04160630113270327 -0.0014045957697967218 0.060118686040297881 -0.0048039332204756757 0.0089237990553198959
leaf_weight=8.9691956937313062 10.651376664638518 26.645391166210175 7.7873325198888761 116.87762756645679 28.978650704026222 28.155545622110367 12.623106837272642 6.9017283618450165 179.61446297168732 20.645467981696129 473.6681969165802 16.43307833373547 9.7641712278127653 21.344975531101227
leaf_count=52 57 117 34 565 135 125 57 30 1043 100 2272 76 47 97
internal_value=0.000320434 0.00312719 0.00377719 0.00188567 0.000978106 0.0181067 0.00760425 0.0403708 -0.0112509 -0.00031999 -0.00316427 0.00946054 0.036634 0.0270242
internal_weight=969.06 780.477 769.825 681.056 666.367 88.769 62.1236 14.6891 188.584 637.389 494.314 143.075 26.1972 33.9681
internal_count=4807 3712 3655 3259 3195 396 279 64 1095 3060 2372 688 123 154
is_linear=0
shrinkage=0.05


end of trees

feature_importances:
slow_slope_12=30
atr_pct_ratio96=27
close_vs_ema200=25
full_spread=23
drawdown24=22
atr_pct=21
ext_up=20
fast_slow_gap=18
ret_4=17
ret_24=12
spread_chg24=11
ma_spread_pct=10
spread_mean8=10
spread_mean24=10
volume_ratio=10
vol_ratio_mean8=10
pre_range48=10
ret_12=10
spread_chg8=9
volume_z=8
ret_48=8
close_vs_ema55=7
spread_pos96=6
dense_run_len=6
pre_range168=6
full_ratio_min48=2
dense_frac48=1
order_score=1

parameters:
[boosting: gbdt]
[objective: binary]
[metric: binary_logloss]
[tree_learner: serial]
[device_type: cpu]
[data_sample_strategy: bagging]
[data: ]
[valid: ]
[num_iterations: 600]
[learning_rate: 0.05]
[num_leaves: 15]
[num_threads: 0]
[seed: 42]
[deterministic: 0]
[force_col_wise: 0]
[force_row_wise: 0]
[histogram_pool_size: -1]
[max_depth: -1]
[min_data_in_leaf: 30]
[min_sum_hessian_in_leaf: 0.001]
[bagging_fraction: 0.8]
[pos_bagging_fraction: 1]
[neg_bagging_fraction: 1]
[bagging_freq: 1]
[bagging_seed: 400]
[bagging_by_query: 0]
[feature_fraction: 0.8]
[feature_fraction_bynode: 1]
[feature_fraction_seed: 30056]
[extra_trees: 0]
[extra_seed: 12879]
[early_stopping_round: 0]
[early_stopping_min_delta: 0]
[first_metric_only: 0]
[max_delta_step: 0]
[lambda_l1: 0]
[lambda_l2: 1]
[linear_lambda: 0]
[min_gain_to_split: 0]
[drop_rate: 0.1]
[max_drop: 50]
[skip_drop: 0.5]
[xgboost_dart_mode: 0]
[uniform_drop: 0]
[drop_seed: 17869]
[top_rate: 0.2]
[other_rate: 0.1]
[min_data_per_group: 100]
[max_cat_threshold: 32]
[cat_l2: 10]
[cat_smooth: 10]
[max_cat_to_onehot: 4]
[top_k: 20]
[monotone_constraints: ]
[monotone_constraints_method: basic]
[monotone_penalty: 0]
[feature_contri: ]
[forcedsplits_filename: ]
[refit_decay_rate: 0.9]
[cegb_tradeoff: 1]
[cegb_penalty_split: 0]
[cegb_penalty_feature_lazy: ]
[cegb_penalty_feature_coupled: ]
[path_smooth: 0]
[interaction_constraints: ]
[verbosity: -1]
[saved_feature_importance_type: 0]
[use_quantized_grad: 0]
[num_grad_quant_bins: 4]
[quant_train_renew_leaf: 0]
[stochastic_rounding: 1]
[linear_tree: 0]
[max_bin: 255]
[max_bin_by_feature: ]
[min_data_in_bin: 3]
[bin_construct_sample_cnt: 200000]
[data_random_seed: 175]
[is_enable_sparse: 1]
[enable_bundle: 1]
[use_missing: 1]
[zero_as_missing: 0]
[feature_pre_filter: 1]
[pre_partition: 0]
[two_round: 0]
[header: 0]
[label_column: ]
[weight_column: ]
[group_column: ]
[ignore_column: ]
[categorical_feature: ]
[forcedbins_filename: ]
[precise_float_parser: 0]
[parser_config_file: ]
[objective_seed: 16083]
[num_class: 1]
[is_unbalance: 0]
[scale_pos_weight: 1]
[sigmoid: 1]
[boost_from_average: 1]
[reg_sqrt: 0]
[alpha: 0.9]
[fair_c: 1]
[poisson_max_delta_step: 0.7]
[tweedie_variance_power: 1.5]
[lambdarank_truncation_level: 30]
[lambdarank_norm: 1]
[label_gain: ]
[lambdarank_position_bias_regularization: 0]
[eval_at: ]
[multi_error_top_k: 1]
[auc_mu_weights: ]
[num_machines: 1]
[local_listen_port: 12400]
[time_out: 120]
[machine_list_filename: ]
[machines: ]
[gpu_platform_id: -1]
[gpu_device_id: -1]
[gpu_use_dp: 0]
[num_gpu: 1]

end of parameters

pandas_categorical:[]
