tree
version=v4
num_class=1
num_tree_per_iteration=1
label_index=0
max_feature_idx=27
objective=binary sigmoid:1
feature_names=ma_spread_pct full_spread fast_slow_gap full_ratio_min48 spread_mean8 spread_mean24 spread_chg8 spread_chg24 spread_pos96 dense_run_len dense_frac48 ext_up close_vs_ema60 close_vs_ema120 order_score slow_slope_12 volume_ratio volume_z vol_ratio_mean8 atr_pct atr_pct_ratio96 pre_range48 pre_range168 drawdown24 ret_4 ret_12 ret_24 ret_48
feature_infos=[4.1563831486501256e-05:0.0044792620339415001] [0.0003125281563631:0.0087998681173754] [6.1342731780265111e-08:0.0078966685068441993] [1:1.7998594612064476] [0.0002526866945516:0.0050021163185484004] [0.00039973504341289998:0.0135846845561467] [-0.0085070363903202006:0.0038347686646353998] [-0.025109972955328502:0.0037536964025196998] [0:0.94013201853033301] [5:487] [0.1041666666666666:1] [-0.0029995714897871999:0.011996133947353301] [-0.0028964279835043002:0.015814481808007898] [-0.0072180087542313004:0.020069588582751] [3:4] [-0.0014964044689715001:0.0014998788824869] [0.5000987036915181:16.335764790916794] [-1.3188429547635669:9.6245779147027246] [0.17705964882076591:4.4833381082468762] [0.0015016542074515:0.0116067242517927] [0.35757580282274332:2.3740473384474279] [0.0046927036027853003:0.047989774575877199] [0.0095648015303682003:0.10997304582210241] [0:0.0119995752362747] [-0.010526315789473601:0.0310502283105023] [-0.0108601752437369:0.031006590772918001] [-0.0118527760449156:0.040894220283533102] [-0.023727137913989099:0.037291462217860602]
tree_sizes=1710 1762 1747 1752 1767 1761 1766 1767 1771 1767 1761 1768 1768 1756 1772 1765 1767 1760 1767 1751 1763 1759 1764 1775 1768 1762 1774 1750 1757 1767 1770 1771

Tree=0
num_leaves=15
num_cat=0
split_feature=12 22 0 20 2 27 15 25 5 20 8 20 25 8
split_gain=75.4856 67.9935 25.9726 25.1174 20.4699 18.5816 20.2024 15.3041 14.4375 14.0097 13.4267 13.4062 11.6775 11.3888
threshold=0.0011552558810950502 0.044054837504514811 0.0014420811781854003 0.89475748613262229 0.0023673762217877006 0.0075068100162977011 0.00048429919126455003 -0.00086899187018289986 0.0038669368336390003 1.0579362578018678 0.087763877493851963 1.2674327451178382 -0.00054142092921994993 0.022606779029954355
decision_type=2 2 2 2 2 2 2 2 2 2 2 2 2 2
left_child=2 5 9 -3 10 6 -2 -8 -9 12 -5 -12 -1 -14
right_child=1 3 -4 4 -6 -7 7 8 -10 -11 11 -13 13 -15
leaf_value=-1.0784212949947845 -1.0422472375639793 -1.0503550757166702 -1.088826867315509 -1.0844203632042981 -1.0554889929888041 -1.049920920968535 -0.96690790614766742 -1.0086645483818408 -1.0450980336823956 -1.0359568847096601 -1.0527192513426655 -1.1036402952206661 -1.0645458345025838 -1.0211962982603726
leaf_weight=133.3956676274538 105.83616097271442 518.46321894228458 192.53377565741539 163.63457076251507 238.27490128576756 112.15188124775887 15.310837030410765 91.673636719584465 39.616790816187859 35.980467021465302 80.956050798296928 14.353909716010092 66.219370156526566 18.564389899373055
leaf_count=697 553 2709 1006 855 1245 586 80 479 207 188 423 75 346 97
internal_value=-1.05718 -1.05139 -1.07502 -1.05805 -1.06607 -1.0329 -1.0254 -1.01342 -1.01949 -1.06448 -1.07577 -1.06079 -1.06925 -1.05475
internal_weight=1826.97 1380.27 446.694 1015.68 497.219 364.589 252.437 146.601 131.29 254.16 258.945 95.31 218.179 84.7838
internal_count=9546 7212 2334 5307 2598 1905 1319 766 686 1328 1353 498 1140 443
is_linear=0
shrinkage=1


Tree=1
num_leaves=15
num_cat=0
split_feature=11 21 0 22 21 0 20 20 20 15 1 4 25 15
split_gain=102.814 54.825 39.1441 18.7298 17.7221 14.98 14.2547 14.1143 13.0783 12.1718 12.1584 12.0444 11.8031 11.9672
threshold=-0.00061984422837349994 0.019315007093650052 0.0010257091984741003 0.044054837504514811 0.015256768877430502 0.0011493733251952002 1.2483370337574555 1.1238653525330193 0.88868810771680451 0.00039150513976310007 0.0027164144121151006 0.0013354273758480002 0.012342216959902402 0.00051682523947045014
decision_type=2 2 2 2 2 2 2 2 2 2 2 2 2 2
left_child=5 2 -2 12 11 -1 9 8 -6 -5 -10 -4 13 -3
right_child=1 3 4 6 7 -7 -8 -9 10 -11 -12 -13 -14 -15
leaf_value=-0.0079913723767957665 -0.0024248071905037635 0.0052009893662112857 0.0034965162447696688 -0.0083156883546717103 0.031341823521402655 -0.029119962705718535 -0.025082922162341349 0.070682096940245062 0.05092348907371206 0.0042671200822037916 -0.010042541927999749 0.059233520304343978 -0.011451105766296123 0.03203371934178089
leaf_weight=124.29690144956112 99.894381061196327 74.828782439231873 11.190656423568724 300.13433739542961 85.6160027384758 263.38470394909382 61.303150191903114 13.932492434978483 8.8524642288684827 530.26551273465157 47.115259110927582 78.283498734235764 34.900585561990738 93.737938359379768
leaf_count=653 520 389 58 1571 445 1391 323 72 46 2770 245 405 181 483
internal_value=0.000437961 0.00659314 0.023947 0.00111131 0.0346662 -0.0223838 -0.00201625 0.0242063 0.0191693 -0.000285261 0.000325138 0.0523781 0.0147608 0.0202233
internal_weight=1827.74 1440.06 344.885 1095.17 244.99 387.682 891.703 155.516 141.584 830.4 55.9677 89.4742 203.467 168.567
internal_count=9552 7508 1791 5717 1271 2044 4664 808 736 4341 291 463 1053 872
is_linear=0
shrinkage=0.05


Tree=2
num_leaves=15
num_cat=0
split_feature=11 21 15 19 2 23 1 10 3 21 5 15 10 18
split_gain=95.164 61.0852 21.9569 20.0314 15.4035 14.8855 13.6601 13.6275 12.8249 12.4435 11.2286 10.9981 9.99586 13.588
threshold=-0.00061984422837349994 0.017566072388191602 0.00046068327200830009 0.0058336078919447509 0.0047026038323282008 0.0083406700517344012 0.0019195057599021002 0.65625000000000011 1.150219637507268 0.011772319984951403 0.0040840193817636003 0.00070574920341885011 0.32291666666666669 0.97762807700979437
decision_type=2 2 2 2 2 2 2 2 2 2 2 2 2 2
left_child=6 2 8 4 5 -3 7 -1 -2 11 -11 -4 -6 -14
right_child=1 3 9 -5 12 -7 -8 -9 -10 10 -12 -13 13 -15
leaf_value=0.066826582254241151 0.0028517374522316575 0.0058955388105330587 0.11357866850768857 -0.010327551103308085 0.014595713824110058 -0.011547969587228372 -0.024323142236400377 -0.0086096968178681049 0.040290281892923829 0.027638807267256 0.071255044667526718 0.039334331381208655 0.099088496348221089 0.019571504641480549
leaf_weight=6.9791527688503292 87.033750399947166 686.82945069670677 10.078928589820864 273.51511396467686 77.653771176934242 147.78993055224419 358.37257017195225 23.273443430662155 30.115103363990784 93.023511961102486 17.413097083568573 12.1152096837759 8.3802491128444689 14.096618607640265
leaf_count=37 450 3573 51 1436 403 771 1912 123 155 475 89 61 43 73
internal_value=0.000350474 0.00621256 0.0286691 0.00155035 0.00503324 0.00279661 -0.0216024 0.0103746 0.0127355 0.0425421 0.0350937 0.0764938 0.0234642 0.0521764
internal_weight=1846.67 1458.04 249.78 1208.27 934.75 834.619 388.625 30.2526 117.149 132.631 110.437 22.1941 100.131 22.4769
internal_count=9652 7580 1281 6299 4863 4344 2072 160 605 676 564 112 519 116
is_linear=0
shrinkage=0.05


Tree=3
num_leaves=15
num_cat=0
split_feature=23 22 13 8 21 1 22 4 27 1 18 13 8 22
split_gain=55.4984 32.6683 19.1171 19.0943 20.4706 17.3814 13.8009 13.5069 13.1469 19.8581 19.1433 15.7227 12.2629 13.4744
threshold=0.0057920140858528013 0.035325646489769158 0.0033461325254773001 0.030846986750453803 0.024487124038911453 0.0018011518781286503 0.043485893965503807 0.0019076667482611001 0.0050792359189746009 0.0061705427442131011 1.0168750045093471 0.010068347075527352 0.15568003061873628 0.035325646489769158
decision_type=2 2 2 2 2 2 2 2 2 2 2 2 2 2
left_child=1 -1 5 -3 8 7 12 -2 11 -10 -11 -5 13 -4
right_child=2 3 6 4 -6 -7 -8 -9 9 10 -12 -13 -14 -15
leaf_value=0.029273635543456317 -0.0036685379997483374 -0.0054173098856658344 -0.015420165775078147 0.028007137487204278 0.00061386812537146847 -0.019153319873315297 -0.005503168559295047 0.058407550888035342 -0.00042087984724818533 0.089825905355531643 0.012188891706563863 0.091852455543109598 -0.008483852333394928 0.046847289769964114
leaf_weight=155.88480834662914 29.154542222619057 307.09993726015091 10.7249409109354 79.949749737977982 240.75130118429661 416.13155789673328 396.45553538203239 11.46364153921604 94.84831990301609 12.715657800436018 19.748038560152054 10.359947025775908 27.911073997616768 37.004026338458061
leaf_count=795 153 1595 55 412 1254 2222 2084 60 489 65 101 53 144 190
internal_value=-0.000204169 0.00848598 -0.00882412 0.00422 0.0106745 -0.0161051 -0.00176065 0.0148336 0.0217507 0.0112583 0.044374 0.0362569 0.017671 0.0328262
internal_weight=1850.2 921.358 928.845 765.473 458.373 456.75 472.096 40.6182 217.622 127.312 32.4637 90.3097 75.64 47.729
internal_count=9672 4764 4908 3969 2374 2435 2473 213 1120 655 166 465 389 245
is_linear=0
shrinkage=0.05


Tree=4
num_leaves=15
num_cat=0
split_feature=11 21 15 21 22 10 8 5 27 11 5 12 22 26
split_gain=69.8533 46.8829 20.421 28.0559 14.8469 18.4512 13.6031 13.1208 14.5101 17.9192 15.2087 11.5054 11.7817 13.4883
threshold=-0.00061984422837349994 0.023696513968702353 0.00046721167673290006 0.012406457513909451 0.050644567219152857 0.73958333333333337 0.073187014607004663 0.0034837330613867001 0.0045512409006365504 0.0013683717780279003 0.0020277823173522505 0.0030043255482129004 0.063813732568751613 0.0092231399604968019
decision_type=2 2 2 2 2 2 2 2 2 2 2 2 2 2
left_child=-1 2 6 -4 5 -5 -2 8 9 -3 -11 -8 13 -13
right_child=1 7 3 4 -6 -7 11 -9 -10 10 -12 12 -14 -15
leaf_value=-0.019431994324296084 -0.00340173491615876 -0.012799794588753008 0.066912833749563777 0.040041871384546623 0.0065458044955910072 0.0071836373723977781 -0.0045962852238054692 -0.0083155865405887611 -0.0042676644784474223 -0.017672764231457996 0.037092889713113163 0.034301882862819856 0.075900040884745335 -0.022968906547389069
leaf_weight=374.95742635428905 184.59411935508251 35.102825745940208 31.576417595148087 113.44756105542183 152.25529697537422 68.995164155960083 33.063816294074059 498.33327962458134 185.69029572606087 14.398571312427519 80.372367024421692 42.541726738214493 11.284996911883352 12.685464680194853
leaf_count=2033 959 184 154 571 784 348 169 2609 973 75 418 217 58 65
internal_value=-0.000205549 0.00472745 0.0147245 0.0225131 0.0181374 0.0277226 0.00464195 -0.00327021 0.00469845 0.0174526 0.0286747 0.0194389 0.0312781 0.0209725
internal_weight=1839.3 1464.34 650.445 366.274 334.698 182.443 284.17 813.897 315.564 129.874 94.7709 99.576 66.5122 55.2272
internal_count=9617 7584 3325 1857 1703 919 1468 4259 1650 677 493 509 340 282
is_linear=0
shrinkage=0.05


Tree=5
num_leaves=15
num_cat=0
split_feature=11 19 0 13 22 0 1 26 16 12 4 23 26 0
split_gain=68.3414 36.4492 15.3493 13.3873 9.85902 11.469 9.72437 9.55867 11.3252 9.888 12.4271 9.42049 10.1388 8.68865
threshold=-0.00078521066447114981 0.0035632240511385004 0.0012461820191460003 0.0019635222490986004 0.043834359691211057 0.0012382198095491003 0.0085397746412784522 0.0080607730857369022 2.455722042002078 0.0063214245551344002 0.0035478594298992004 0.010015640233805701 0.01196519886119725 0.0035979365019105504
decision_type=2 2 2 2 2 2 2 2 2 2 2 2 2 2
left_child=2 3 -1 -2 7 -6 11 8 9 10 -5 12 -3 -4
right_child=1 6 13 4 5 -7 -8 -9 -10 -11 -12 -13 -14 -15
leaf_value=-0.0074531177282440506 -0.0048168543752101214 0.0031321752277725769 -0.030972548162632469 0.041217418659364291 -0.011228351876485316 0.01944239472099319 0.045102805491282295 0.0070227277313820394 0.0056023053954466226 0.094404650334129522 -0.016513590385891171 -0.014270426890732 -0.0086390889892313579 0.022865738950953972
leaf_weight=132.05376286804676 62.085150673985481 702.57125113904476 210.21546238660812 103.34598368406296 42.591625139117241 101.60274313390255 10.234230399131773 43.923204779624939 29.28505727648735 7.3323715925216666 9.7068891674280149 129.2059633731842 246.20000506937504 7.0831008106470099
leaf_count=715 322 3654 1160 512 220 517 53 220 146 36 48 683 1288 39
internal_value=-0.00110673 0.00356868 -0.0209752 0.0164574 0.0203703 0.010368 -0.00117817 0.0277287 0.0337183 0.0404553 0.0361592 -0.00165895 7.17284e-05 -0.0291209
internal_weight=1837.44 1488.08 349.352 399.873 337.788 144.194 1088.21 193.594 149.67 120.385 113.053 1077.98 948.771 217.299
internal_count=9613 7699 1914 2021 1699 737 5678 962 742 596 560 5625 4942 1199
is_linear=0
shrinkage=0.05


Tree=6
num_leaves=15
num_cat=0
split_feature=12 22 20 27 0 1 25 2 2 8 1 3 23 18
split_gain=56.8038 30.9365 22.1034 20.2682 17.8156 14.2348 13.9127 13.7041 13.4371 12.512 16.2946 12.4895 11.9447 13.9452
threshold=0.0011552558810950502 0.044054837504514811 0.89260480059489733 0.0060774031351362012 0.0014420811781854003 0.0085397746412784522 -0.0008058313803991999 0.0028977321971593501 0.004767977859357151 0.053277763226633558 0.0059241779972256511 1.517253757810489 0.0071373441021675508 1.1299257166846128
decision_type=2 2 2 2 2 2 2 2 2 2 2 2 2 2
left_child=4 3 5 12 6 9 -1 -4 -5 -3 -11 -9 13 -2
right_child=1 2 7 8 -6 -7 -8 11 -10 10 -12 -13 -14 -15
leaf_value=-0.016531138665679457 0.043798302179186156 1.6130249932810836e-06 -0.013358340479963239 -0.0014699814963314603 -0.026916713506753988 0.069749739652592582 0.0072543397191421229 4.0282743936426965e-05 0.053085664769686784 0.0057525353226244502 0.034045708558276211 0.048451270655518235 0.00097288482855133825 0.016250431532339519
leaf_weight=145.5481423586607 106.9711966663599 294.28368954360485 305.66936875879765 136.12113124132156 188.53041829168797 8.1503398865461332 105.13556762039661 179.82919861376286 11.302750080823897 146.04455928504467 77.537032216787338 13.388982623815535 37.386427879333496 83.093442544341087
leaf_count=791 528 1529 1621 689 1054 41 559 937 55 755 399 70 190 412
internal_value=0.000324177 0.00524757 0.000746945 0.0175175 -0.015343 0.00789054 -0.00656643 -0.00678582 0.00304219 0.00678443 0.0156724 0.0036271 0.0268454 0.0319029
internal_weight=1838.99 1399.78 1024.9 374.875 439.214 526.016 250.684 498.888 147.424 517.865 223.582 193.218 227.451 190.065
internal_count=9630 7226 5352 1874 2404 2724 1350 2628 744 2683 1154 1007 1130 940
is_linear=0
shrinkage=0.05


Tree=7
num_leaves=15
num_cat=0
split_feature=12 21 0 27 0 8 26 20 10 19 8 20 1 9
split_gain=48.2146 47.8504 25.123 21.8117 17.3441 16.7182 14.7916 13.3729 12.0894 11.7724 13.0149 13.9697 11.6376 11.3742
threshold=0.0011957130714466502 0.019315007093650052 0.0010139475056544502 0.0064329098935796509 0.0014420811781854003 0.053277763226633558 0.0092231399604968019 0.95515079048790363 0.55208333333333337 0.0035323281395411503 0.14220185106682079 1.1884422348232704 0.0031371697390455504 5.5000000000000009
decision_type=2 2 2 2 2 2 2 2 2 2 2 2 2 2
left_child=4 2 -2 5 7 6 8 -1 -3 -7 11 -11 -10 -5
right_child=1 3 -4 13 -6 9 -8 -9 12 10 -12 -13 -14 -15
leaf_value=-0.011767342877475162 -0.0026891885718309614 0.00011970930689747945 0.029831960236434165 0.010329650518804417 -0.024940570542713342 0.043065605200881776 -0.015080413358599935 0.014126725616459949 0.054695439558577967 0.015767686372756867 -0.0026457860727900889 0.064952360984318308 0.0075007810867206391 -0.010394661009171836
leaf_weight=183.88217248022556 77.339493632316589 149.3576885163784 252.60012260079384 77.670155987143517 185.78630076348782 35.166027992963791 112.38518689572811 67.338515236973763 22.004553586244583 118.13310822844505 88.898947507143021 15.684366986155508 31.098898380994797 421.67485557496548
leaf_count=997 392 779 1243 406 1052 175 590 361 114 610 459 81 161 2209
internal_value=0.00108367 0.00560416 0.0222237 0.000473396 -0.0133987 0.00712691 -0.000610693 -0.00479807 0.00745602 0.0165396 0.0121774 0.0219715 0.0277064 -0.00715691
internal_weight=1839.02 1402.01 329.94 1072.07 437.007 572.729 314.846 251.221 202.461 257.882 222.716 133.817 53.1035 499.345
internal_count=9629 7219 1635 5584 2410 2969 1644 1358 1054 1325 1150 691 275 2615
is_linear=0
shrinkage=0.05


Tree=8
num_leaves=15
num_cat=0
split_feature=23 22 13 22 18 6 2 4 21 7 15 7 22 22
split_gain=46.7962 18.9923 15.6072 17.033 13.725 13.6688 13.584 12.837 11.9784 11.2121 13.316 10.0364 10.4467 10.0265
threshold=0.0054471957100827506 0.035578758801355657 0.0033461325254773001 0.042599342156806309 1.9333457598930497 -0.00014947377255739998 0.0014029097115970002 0.0018793905914775502 0.017401472543381907 0.00014504846065755003 0.00091081134867405011 -0.0027339987968834994 0.057233857995054059 0.037464770841768455
decision_type=2 2 2 2 2 2 2 2 2 2 2 2 2 2
left_child=1 -1 6 5 7 13 9 -3 11 10 -2 -9 -13 -4
right_child=2 4 3 -5 -6 -7 -8 8 -10 -11 -12 12 -14 -15
leaf_value=0.024257801502745618 -0.0029740910775124967 -0.0030076426929281684 0.0083027844000440557 -0.00519475640855575 -0.027249618346423667 -0.024742215051193443 -0.021772855848819651 0.058967871791987737 0.0081809569794079415 -0.038012667450207697 0.065768012654272498 0.0026863724753491774 0.062145904328525951 0.048579112395795973
leaf_weight=157.2861891835928 172.2190777361393 231.27939161658287 29.189095452427864 434.35209572315216 30.375503540039062 13.040047273039816 254.02299048006535 21.150448471307755 393.95633335411549 20.996588334441185 6.3434506356716147 32.03982225060463 8.6395221501588804 33.054782599210739
leaf_count=771 933 1190 149 2299 158 66 1410 103 2033 115 35 156 43 165
internal_value=0.000210084 0.00857709 -0.00738926 -0.00137853 0.00511039 0.0204188 -0.0141249 0.00657857 0.0114388 -0.00432967 -0.000179353 0.0317362 0.0165025 0.0301216
internal_weight=1837.95 874.727 963.218 509.636 717.441 75.2839 453.582 687.066 455.786 199.559 178.563 61.8298 40.6793 62.2439
internal_count=9626 4454 5172 2679 3683 380 2493 3525 2335 1083 968 302 199 314
is_linear=0
shrinkage=0.05


Tree=9
num_leaves=15
num_cat=0
split_feature=12 21 4 20 4 20 27 5 13 27 8 1 2 4
split_gain=38.5905 23.869 16.0409 15.1523 14.356 13.4805 12.8435 14.0491 11.5944 11.5191 14.1959 13.6524 10.9878 10.6555
threshold=0.0011109362647400503 0.020658376326644204 0.0012999601287428501 1.0711620877674013 0.0011312628700438003 1.0744680181698028 0.0059582398792683011 0.0046742275579841012 0.0037641885227508005 0.0047491613651577504 0.079315374850045167 0.0043045578895231007 0.0005790271659278501 0.0020545515680727004
decision_type=2 2 2 2 2 2 2 2 2 2 2 2 2 2
left_child=2 3 5 9 -5 -1 7 -3 -9 10 -2 -12 -4 -11
right_child=1 6 12 4 -6 -7 -8 8 -10 13 11 -13 -14 -15
leaf_value=-0.0029878864090792986 0.0078322584564539943 0.010860151809719706 0.0046814747800629558 -0.016416731194047737 0.045023810404351133 0.051736556997897899 -0.0062980907297297819 -0.036245360324596583 -0.00087988153958110625 -0.014690560021424715 0.060771446385039701 0.014393934621092197 -0.022465575340686699 0.010992878976930916
leaf_weight=76.797451764345169 129.36413200199604 332.41657380759716 42.549979194998741 10.848997697234152 56.62630207836628 12.167740240693091 502.41733400523663 27.399176150560379 126.28324107825756 72.488430231809616 29.819540739059448 34.416568458080292 282.90175522863865 88.650722220540047
leaf_count=417 646 1711 235 55 275 64 2642 146 661 362 143 167 1602 436
internal_value=-0.0003869 0.00355507 -0.0137821 0.0134914 0.0350496 0.00498864 -0.000698266 0.00509059 -0.00737855 0.00930375 0.0174911 0.0365247 -0.0189129 -0.00058016
internal_weight=1825.15 1410.73 414.417 422.215 67.4753 88.9652 988.516 486.099 153.682 354.739 193.6 64.2361 325.452 161.139
internal_count=9562 7244 2318 2084 330 481 5160 2518 807 1754 956 310 1837 798
is_linear=0
shrinkage=0.05


Tree=10
num_leaves=15
num_cat=0
split_feature=11 21 0 19 22 20 8 1 22 0 6 23 24 18
split_gain=53.0717 31.2604 16.8812 17.1263 15.5136 13.2348 12.3678 13.8129 11.9864 11.4564 11.939 11.431 14.2045 11.2696
threshold=-0.00074865773605329992 0.017566072388191602 0.0010139475056544502 0.0031635023780961003 0.044054837504514811 1.2555999446249373 0.05406841778599366 0.0084588701365419013 0.054868471982975307 0.0012382198095491003 -0.0018594635516315497 0.00092073966628140002 0.0066133465854482003 1.3397160184213133
decision_type=2 2 2 2 2 2 2 2 2 2 2 2 2 2
left_child=9 2 -2 8 -3 6 -6 11 -4 10 -1 -8 -13 -5
right_child=1 4 3 13 5 -7 7 -9 -10 -11 -12 12 -14 -15
leaf_value=0.015118161283391413 0.00032249325607567675 0.0116552739980815 0.022054764781558527 0.058919925873972337 -0.0059919230932315723 -0.026017285258662266 -0.022491770481898453 0.058984850989407006 -0.023719228602678385 -0.024757893147659086 -0.016707225963421612 0.0001518370760463869 0.02172796197162848 0.011211170799202161
leaf_weight=43.886600270867348 81.74659164249897 253.58008985221386 107.95400409400463 51.288948357105255 503.57626283168793 54.109588488936424 35.597163245081902 10.837121441960333 15.626023113727568 213.52318847179413 85.077239379286766 245.30257114768028 109.71743939816952 16.929887115955353
leaf_count=244 414 1268 510 250 2659 293 183 54 77 1242 469 1273 574 82
internal_value=4.08051e-05 0.00413195 0.0193671 0.0274404 0.000682327 -0.00222785 -0.000778389 0.00576 0.016123 -0.0176736 -0.005844 0.00413651 0.00686215 0.047413
internal_weight=1828.75 1486.27 273.545 191.799 1212.72 959.14 905.031 401.454 123.58 342.487 128.964 390.617 355.02 68.2188
internal_count=9592 7637 1333 919 6304 5036 4743 2084 587 1955 713 2030 1847 332
is_linear=0
shrinkage=0.05


Tree=11
num_leaves=15
num_cat=0
split_feature=11 22 20 27 20 13 21 2 1 27 22 16 11 1
split_gain=51.193 33.3107 19.0519 14.3753 13.9003 12.2086 11.8552 11.667 10.8482 11.6099 9.34983 9.08407 8.91108 12.1695
threshold=-0.00052869289482649988 0.044054837504514811 0.87167703971166022 0.011957495268650501 1.0277378510910589 0.015916697851806102 0.014863541551047302 0.0014176364326997002 0.0024717539358164006 -0.0046009447446321997 0.025523978137794005 2.3963723292437105 0.00012615984871875002 0.0059241779972256511
decision_type=2 2 2 2 2 2 2 2 2 2 2 2 2 2
left_child=8 3 6 4 11 -4 -3 10 9 -1 -6 -2 -8 -14
right_child=1 2 5 -5 7 -7 12 -9 -10 -11 -12 -13 13 -15
leaf_value=0.051624792681385083 0.016460794858015972 0.038155177822051363 -0.0078423766216404265 -0.011451773006591323 0.053098408227955023 0.034904514068471948 -0.015639222907345107 0.044919456567034347 -0.019878082287300407 -0.0064385253014088654 0.0061998949906875945 -0.0099946381554275252 0.0015057540214405002 0.019534306058361175
leaf_weight=9.3350363373756391 193.30556009709835 27.743259191513062 531.48258171975613 40.400599911808968 12.456136524677275 16.268749549984932 45.967604696750641 77.921029463410378 309.87730860710144 50.671837314963341 52.222709998488426 38.252108082175255 290.9080918431282 137.14153495430946
leaf_count=51 933 136 2806 205 60 85 243 375 1788 279 261 187 1508 698
internal_value=0.000474024 0.00467459 -6.94552e-05 0.0166561 0.0197135 -0.00651146 0.00696198 0.0319608 -0.0161204 0.00329231 0.0159028 0.0120663 0.00505982 0.00731393
internal_weight=1833.95 1464.07 1049.51 414.558 374.158 547.751 501.76 142.6 369.884 60.0069 64.6788 231.558 474.017 428.05
internal_count=9615 7497 5476 2021 1816 2891 2585 696 2118 330 321 1120 2449 2206
is_linear=0
shrinkage=0.05


Tree=12
num_leaves=15
num_cat=0
split_feature=11 22 20 0 20 11 16 11 20 0 6 19 15 18
split_gain=34.6459 22.8629 19.3041 10.5444 10.1011 12.9619 11.5934 10.6921 9.7759 9.18863 8.85416 7.49797 7.76008 12.3143
threshold=-0.00091575313863459984 0.044054837504514811 1.2674327451178382 0.00088207481208425005 0.9460652247392386 0.0046270147938097007 2.4245599821893893 0.00026165440411735004 0.73549452908406698 0.0031871899303472502 -0.0026648506735215999 0.0044633900592408009 0.00049409342725690003 1.7421818090907188
decision_type=2 2 2 2 2 2 2 2 2 2 2 2 2 2
left_child=3 4 -3 -1 5 6 7 8 -2 11 -9 -6 13 -13
right_child=1 2 -4 -5 9 -7 -8 10 -10 -11 -12 12 -14 -15
leaf_value=0.0023947365212783353 0.044350562444712083 0.00012453772533411463 -0.030182326743116085 -0.020684777266809545 0.029080761342547702 -0.020946965101440243 -0.021705808858115513 0.062401483621923992 -0.020758697972823845 -0.012627600824115948 0.017906815229517248 -0.025383681876560135 0.024055517103788015 0.049905310575907746
leaf_weight=61.877025797963142 6.1833796650171271 1025.6336651593447 54.378778591752052 242.38608179986477 140.11024712026119 40.381736651062965 23.359454691410065 11.984195470809935 28.608168289065361 19.760016843676567 96.187920495867729 24.758962169289592 35.834381967782974 5.9082936793565741
leaf_count=344 31 5354 300 1430 670 200 116 59 147 100 458 125 176 30
internal_value=-0.000632466 0.00246602 -0.00142793 -0.0159987 0.0121577 0.00413546 0.010314 0.0156603 -0.00827123 0.0194326 0.0233627 0.0225448 0.00854755 -0.00976077
internal_weight=1817.35 1513.09 1080.01 304.263 433.077 206.705 166.323 142.964 34.7915 226.372 108.172 206.612 66.5016 30.6673
internal_count=9540 7766 5654 1774 2112 1011 811 695 178 1101 517 1001 331 155
is_linear=0
shrinkage=0.05


Tree=13
num_leaves=15
num_cat=0
split_feature=13 21 5 8 15 20 2 18 17 19 6 5 9 21
split_gain=27.3569 21.0899 13.118 13.0449 12.8686 12.3681 18.6013 16.1765 14.8676 13.965 12.0844 11.4968 11.0316 12.1889
threshold=0.0015955472341870503 0.024122086188923652 0.0034837330613867001 0.28353714559293069 0.00083424071886425012 1.0207323500957008 0.0012930556357964502 1.332594500046399 1.1903060294079875 0.0033743791730925002 -0.00087977968345889985 0.0011567044122043502 6.5000000000000009 0.031688582548575255
decision_type=2 2 2 2 2 2 2 2 2 2 2 2 2 2
left_child=4 3 -3 5 -1 8 9 -8 11 -7 -9 -2 13 -4
right_child=1 2 12 -5 -6 6 7 10 -10 -11 -12 -13 -14 -15
leaf_value=-0.014994947842477235 0.054987215188990392 0.0053546706892930972 0.015822731975099993 0.031494612388997943 0.032186759874583477 0.03273970408829182 0.042440799870722606 0.028071570760225557 -0.019461037717753607 -0.032635359833387549 -0.0265590248709517 0.0049398006060741486 -0.013873178592472099 -0.010064401737308741
leaf_weight=331.60745321214199 10.799691259860991 287.49345590174198 82.113006204366684 57.176625713706017 14.190675839781759 11.083903312683104 75.583367794752121 20.746914654970169 63.200561657547951 24.525079846382141 17.945874974131584 437.69033971428871 305.92728695273399 99.420973509550095
leaf_count=1853 54 1507 431 278 83 52 372 105 322 125 90 2235 1630 527
internal_value=-0.000319749 0.00261589 -0.0031044 0.00877922 -0.0129715 0.00677147 0.0193535 0.0291261 0.00305538 -0.0119478 0.00270291 0.0062646 -0.00809411 0.00166762
internal_weight=1839.51 1493.71 774.955 718.752 345.798 661.576 149.885 114.276 511.691 35.609 38.6928 448.49 487.461 181.534
internal_count=9664 7728 4095 3633 1936 3355 744 567 2611 177 195 2289 2588 958
is_linear=0
shrinkage=0.05


Tree=14
num_leaves=15
num_cat=0
split_feature=11 21 2 22 26 6 5 5 5 3 9 5 13 26
split_gain=49.8837 25.1033 12.4607 10.6955 10.5796 10.2159 12.6396 9.94948 12.0404 21.2672 9.11836 8.83571 9.45041 8.41413
threshold=-0.00091575313863459984 0.017566072388191602 0.0041701709302833009 0.041446936972700556 -0.0059485663113402988 -0.0017617698383600997 0.0053774826076163516 0.0016334131575957503 0.0034837330613867001 1.4604360694647138 7.5000000000000009 0.0068086328558845015 0.0066778941123537506 0.013355878518992802
decision_type=2 2 2 2 2 2 2 2 2 2 2 2 2 2
left_child=4 2 -2 -3 5 6 -1 -5 -9 10 -10 13 -13 -12
right_child=1 3 -4 7 -6 -7 -8 8 9 -11 11 12 -14 -15
leaf_value=0.040702171379948165 0.011983831501370203 0.0109704204601162 0.039258338087827027 -0.028328710047896777 -0.022755541417580922 -0.025489870809616573 -0.022362804206080694 0.0056688119993055014 -0.001368916101359117 0.026462025493712401 -0.01242479633673229 -0.023671715650136468 0.050839192982294557 -0.035790689621370102
leaf_weight=21.484959825873375 239.63434506952763 203.26611624658108 50.256703749299049 32.554625540971756 252.05051608383656 20.247439131140709 11.492254748940466 430.2119125276804 251.72017374634743 47.124266728758812 213.85127685964108 6.4406147748231879 9.3542149066925031 46.708567872643471
leaf_count=124 1161 997 234 170 1488 120 69 2242 1331 247 1135 35 50 251
internal_value=-7.21328e-05 0.00361037 0.016831 0.000511628 -0.0184934 0.00173778 0.0187133 -0.00154512 -0.000650595 -0.00537874 -0.00826479 -0.0145184 0.0208557 -0.0167342
internal_weight=1836.4 1531.12 289.891 1241.23 305.275 53.2247 32.9772 1037.97 1005.41 575.199 528.075 276.355 15.7948 260.56
internal_count=9654 7853 1395 6458 1801 313 193 5461 5291 3049 2802 1471 85 1386
is_linear=0
shrinkage=0.05


Tree=15
num_leaves=15
num_cat=0
split_feature=11 22 1 20 15 25 3 2 15 3 20 3 19 1
split_gain=31.559 18.7698 15.8712 14.6678 12.3636 9.78546 9.26361 20.9448 13.1277 13.0837 12.636 11.8236 14.3086 12.2733
threshold=-0.00091575313863459984 0.044054837504514811 0.0019953558455622004 1.2555999446249373 0.00058395951044050009 0.012342216959902402 1.4127784599651341 0.0027305343209266006 0.0010576531719269503 1.1212391644577446 0.89260480059489733 1.0700591691827355 0.0061341545617430507 0.0070630553396329506
decision_type=2 2 2 2 2 2 2 2 2 2 2 2 2 2
left_child=2 4 -1 6 -2 -6 9 8 -8 10 -3 13 -13 -12
right_child=1 3 -4 -5 5 -7 7 -9 -10 -11 11 12 -14 -15
leaf_value=0.02124325438998528 0.004052553254366569 0.008328028325035786 -0.018108516661233431 -0.024774459546771949 0.024701571603266193 -0.010126910488274228 -0.012174329414485291 0.043166475572002268 0.042916027676112009 -0.011562189702158113 -0.0041118145852348615 0.042650733354860457 -0.025333971004838914 -0.033934816592304927
leaf_weight=27.399859413504601 236.6723173558712 410.86571905016899 275.85953186452389 57.293092980980873 180.81049610674381 22.13683395087719 57.176287651062012 39.748652815818787 12.284713715314863 210.43094865977764 237.90132524073124 24.256729856133461 10.374913319945334 39.430611059069633
leaf_count=152 1160 2128 1656 320 851 111 299 201 64 1103 1263 129 56 205
internal_value=0.000220478 0.00312695 -0.0144949 -0.000366279 0.0118467 0.0208716 0.000997626 0.0147069 -0.00196038 -0.000620654 0.00257623 -0.00500147 0.0221445 -0.00845869
internal_weight=1842.64 1539.38 303.259 1099.76 439.62 202.947 1042.47 109.21 69.461 933.26 722.829 311.964 34.6316 277.332
internal_count=9698 7890 1808 5768 2122 962 5448 564 363 4884 3781 1653 185 1468
is_linear=0
shrinkage=0.05


Tree=16
num_leaves=15
num_cat=0
split_feature=11 21 27 11 2 1 17 27 27 27 11 7 3 16
split_gain=35.0768 21.4621 13.225 11.6356 11.3184 10.8598 10.6868 10.6464 10.0752 10.4595 11.3023 9.88538 9.51171 9.21716
threshold=-0.00037943141151414991 0.019315007093650052 0.0057632861227170009 0.0043026973411153515 0.0042847649728962505 0.0024717539358164006 2.0415832654158961 -0.0046009447446321997 -0.0031704328704563996 0.0022044682244342002 0.0027521145757322505 0.00071255480298390019 1.0009934348917089 0.53544579616014565
decision_type=2 2 2 2 2 2 2 2 2 2 2 2 2 2
left_child=5 4 6 13 8 7 11 -1 -2 10 -10 -3 -12 -4
right_child=1 2 3 -5 -6 -7 -8 -9 9 -11 12 -13 -14 -15
leaf_value=0.048783700977319717 -0.0385039272270137 0.0025772967527139222 0.047037494488134997 -0.010620995860199153 0.034255061752710071 -0.016746888085037291 0.032488728942350324 -0.0038535429617464661 0.014066031988464543 0.0054815321612057691 0.020442289473471289 0.037400581874853622 0.079148600173512274 0.001738867095075922
leaf_weight=10.87226255238056 9.2396135330200178 489.07285921275616 10.928621664643286 348.93066944181919 58.794677451252937 322.85331016778946 34.327850148081779 49.711896046996117 68.921551495790482 201.47368381917477 14.341418832540514 20.278343677520752 14.218960523605345 193.39726278185844
leaf_count=59 46 2518 57 1846 271 1920 176 279 333 966 68 102 66 1012
internal_value=0.000332691 0.00386007 0.000354441 -0.00508337 0.014309 -0.0131095 0.00588721 0.00623135 0.0104054 0.0120403 0.0254025 0.00403425 0.0513584 0.00437901
internal_weight=1847.36 1463.93 1096.94 553.257 366.99 383.437 543.679 60.5842 308.195 298.956 97.4819 509.351 28.5604 204.326
internal_count=9719 7461 5711 2915 1750 2258 2796 338 1479 1433 467 2620 134 1069
is_linear=0
shrinkage=0.05


Tree=17
num_leaves=15
num_cat=0
split_feature=11 22 20 2 18 17 17 3 18 27 23 0 22 4
split_gain=26.0246 20.6777 14.96 10.8013 13.3115 12.0703 10.427 9.97624 10.0567 9.66578 9.63661 9.3866 9.30882 9.17056
threshold=-0.00061984422837349994 0.044054837504514811 0.80769066843810611 0.0023673762217877006 1.4266449238142627 1.4763248073587956 1.8499051930851438 1.4127784599651341 0.67729437592126718 0.0060774031351362012 0.0083843725273005515 0.0011083216831677502 0.043121149897330562 0.0028660980523150504
decision_type=2 2 2 2 2 2 2 2 2 2 2 2 2 2
left_child=-1 9 6 -4 5 7 -3 -5 -9 10 11 -2 -13 -6
right_child=1 2 3 4 13 -7 -8 8 -10 -11 -12 12 -14 -15
leaf_value=-0.012613409727843354 0.0075718914428487038 0.0060189150453833738 -0.010774904650245852 -6.3306238522291267e-05 -0.003424370357857265 0.042314143413550533 0.055499561072437247 -0.022800291577945428 0.047601354420196029 0.0022853033221195964 -0.0074535535804837391 0.024975731232911257 0.073232406935525102 -0.038197029445468787
leaf_weight=338.56153635680676 82.005682587623596 327.4752554744482 386.34772139787674 204.52706803381443 53.147957444190979 21.287809401750565 10.02917133271694 5.9331414252519634 20.963504403829575 160.92971859872341 32.654437467455864 142.283831641078 10.148425132036207 28.671857416629791
leaf_count=2031 393 1675 2075 1063 279 109 51 30 105 786 160 653 48 151
internal_value=-0.000123783 0.00272757 -0.0010249 -0.0050908 0.00148628 0.00716362 0.00764888 0.00376211 0.0318108 0.0119872 0.0178025 0.0213371 0.0286449 -0.0159237
internal_weight=1824.97 1486.41 1058.38 720.879 334.531 252.712 337.504 231.424 26.8966 428.022 267.092 234.438 152.432 81.8198
internal_count=9609 7578 5538 3812 1737 1307 1726 1198 135 2040 1254 1094 701 430
is_linear=0
shrinkage=0.05


Tree=18
num_leaves=15
num_cat=0
split_feature=11 21 24 26 20 24 2 20 20 15 22 22 13 5
split_gain=26.1945 16.5522 12.5672 12.3561 13.7989 11.734 10.9005 10.6789 12.979 11.2911 11.0283 14.5903 10.71 9.84497
threshold=-0.0013698267541315998 0.015256768877430502 -0.0057580963113037491 -0.0060944882463439994 1.0395555452976086 0.0074816304606812002 0.00309136677170915 1.2401473932449343 1.0913886961542791 0.00049409342725690003 0.043485893965503807 0.034514668487925608 0.013368268904200601 0.0017648312693242002
decision_type=2 2 2 2 2 2 2 2 2 2 2 2 2 2
left_child=2 5 -1 -4 -5 6 -2 8 12 -10 11 -11 13 -3
right_child=1 7 3 4 -6 -7 -8 -9 9 10 -12 -13 -14 -15
leaf_value=0.023247791162520487 0.0046169458067644885 -0.016631515698496926 0.0046794725662105538 -0.031259339602727983 0.0076990263061125983 0.073082125194657829 0.030802611096213912 -0.014388534393555403 -0.0019239733134491215 0.0027000868017324009 0.012473710726697951 0.068080603115781374 -0.022044945734113738 0.0020928760589228675
leaf_weight=18.217054814100266 119.44781939685345 74.540532395243645 43.160078406333923 143.42239589989185 26.560569256544113 7.7092788666486731 58.894744709134102 111.22851383686066 68.734473809599876 13.076389387249945 75.675041109323502 24.029439494013786 53.040465205907822 992.35555996000767
leaf_count=111 580 384 259 886 160 36 273 593 363 61 399 114 276 5152
internal_value=-1.67526e-05 0.00226181 -0.0157039 -0.0191261 -0.0251625 0.0162389 0.0133879 0.000410825 0.00168573 0.0140497 0.0237162 0.0457155 -0.000328924 0.000770315
internal_weight=1830.09 1598.73 231.36 213.143 169.983 186.052 178.343 1412.68 1301.45 181.515 112.781 37.1058 1119.94 1066.9
internal_count=9647 8231 1416 1305 1046 889 853 7342 6749 937 574 175 5812 5536
is_linear=0
shrinkage=0.05


Tree=19
num_leaves=15
num_cat=0
split_feature=11 21 22 1 9 19 4 20 24 9 21 20 0 22
split_gain=32.1724 16.7184 13.8242 12.7654 12.2575 11.0602 14.9478 10.5997 12.1835 11.0357 12.0057 10.0516 9.61598 9.45671
threshold=-0.00061984422837349994 0.015256768877430502 0.044054837504514811 0.0019195057599021002 32.500000000000007 0.0032695945182754506 0.0012875104986033003 1.0277378510910589 0.009980527912725903 74.500000000000014 0.028372891923919653 0.81356922796171605 0.0036401917862071503 0.025523978137794005
decision_type=2 2 2 2 2 2 2 2 2 2 2 2 2 2
left_child=3 5 7 4 -1 13 -7 8 12 10 -9 -4 -3 -2
right_child=1 2 11 -5 -6 6 -8 9 -10 -11 -12 -13 -14 -15
leaf_value=0.052732203667113536 0.039996598608019879 0.0024953840332884308 0.0057708727666726219 -0.016871113357392924 -0.010756372362994 -0.0060640942641713678 0.072563168447306689 0.033437309504186948 -0.055130197536101204 -0.024587284957791652 -0.0044764694621299327 -0.0048525059178623035 0.051254836788239347 0.0059556013358871779
leaf_weight=12.528244167566301 24.298651292920113 165.57603973150253 328.71240481734276 305.53434580564499 16.733451142907143 8.6920957267284411 17.813535809516907 97.547216430306435 7.6994241923093787 11.307712867856024 26.216477021574974 684.96787078678608 9.7792454957962018 108.0584370046854
leaf_count=67 110 796 1686 1874 94 43 81 459 39 55 131 3642 47 500
internal_value=0.000138051 0.00328565 0.00145057 -0.0138446 0.0172702 0.0185645 0.0474956 0.0105265 0.00265442 0.0210971 0.0254346 -0.0014053 0.00548983 0.012458
internal_weight=1825.47 1490.67 1331.81 334.796 29.2617 158.863 26.5056 318.126 183.055 135.071 123.764 1013.68 175.355 132.357
internal_count=9624 7589 6855 2035 161 734 124 1527 882 645 590 5328 843 610
is_linear=0
shrinkage=0.05


Tree=20
num_leaves=15
num_cat=0
split_feature=11 2 21 21 27 11 16 15 5 16 9 5 24 0
split_gain=23.6807 12.0607 11.1175 10.7567 13.6519 14.9534 10.5452 10.41 8.97033 13.4412 12.853 8.58195 8.3959 8.23304
threshold=-0.0010834083841022499 0.0041701709302833009 0.015256768877430502 0.028930153350957354 0.0052975031454665011 0.0065315056251619508 0.59335872412065704 0.00038404601703685004 0.0058908846755540006 1.0264648857122005 19.500000000000004 0.005465750909145751 0.010636240970199501 0.0015053404461798502
decision_type=2 2 2 2 2 2 2 2 2 2 2 2 2 2
left_child=-1 3 -3 4 5 7 -4 -2 10 -10 -9 -7 -6 -8
right_child=1 2 6 -5 12 11 13 8 9 -11 -12 -13 -14 -15
leaf_value=-0.013261565601264253 -0.0018591010195091512 0.040392327106556838 0.040444289892041574 -0.005537562481644968 -5.4529084529085899e-06 0.048559121217471295 0.027011009884053291 -0.00080403476734278157 0.088898370198152665 -0.0029111776339274496 0.022389026394999935 -0.014741099898994301 -0.02216804820738805 0.00080916389923378076
leaf_weight=261.80452111363411 185.95286512374878 30.887421548366547 22.75700631737709 425.68811695277691 346.55868229269981 33.4408860206604 35.135665312409401 115.35449992120266 8.3261542618274671 6.8555671572685233 122.74131700396538 5.8656693547964087 47.743815541267395 176.39865511655807
leaf_count=1629 946 136 114 2281 1764 163 179 575 43 35 595 30 250 890
internal_value=0.000626735 0.00295898 0.0126548 0.00097073 0.00414756 0.0098152 0.00884198 0.0071225 0.013698 0.0498223 0.0111959 0.0389815 -0.00273828 0.00526788
internal_weight=1825.51 1563.71 265.179 1298.53 872.839 478.537 234.291 439.23 253.278 15.1817 238.096 39.3066 394.302 211.534
internal_count=9630 8001 1319 6682 4401 2387 1183 2194 1248 78 1170 193 2014 1069
is_linear=0
shrinkage=0.05


Tree=21
num_leaves=15
num_cat=0
split_feature=23 22 0 12 21 5 27 5 27 6 20 7 3 6
split_gain=22.5161 10.3952 13.0543 10.6224 11.8308 11.0298 19.9985 11.2437 10.6743 12.4491 11.0527 10.1586 9.94498 9.62204
threshold=0.0057015905669912511 0.035028186992057252 0.0010636308466400004 0.0018517213869263002 0.019822395300181303 0.0035580295895553007 0.007154716150997901 0.0054124608903033502 0.013150962091448901 -0.0016675345053222999 1.0027085075505024 -0.0021197801189601494 1.4482215944334056 -0.0016381692904272997
decision_type=2 2 2 2 2 2 2 2 2 2 2 2 2 2
left_child=1 -1 -3 -4 11 6 13 12 10 -10 -9 -5 -7 -6
right_child=-2 2 3 4 5 7 -8 8 9 -11 -12 -13 -14 -15
leaf_value=0.017030876116399241 -0.0056212957446603526 -0.011443076361423455 -0.023231518346942061 0.033603621076796313 0.059362878361728148 -0.017074118320190221 -0.0043260981152227094 -0.013982427786866881 0.013794882138464241 0.085800078812200295 0.033129747630263225 0.0078624623120977649 0.025962617499480763 0.019308903030897655
leaf_weight=159.84215402603149 898.07676531374454 128.4666163623333 28.795243263244629 67.914334058761597 17.321694672107697 131.57038269937038 104.54400643706322 49.662821367383003 23.878579199314121 7.2636836618185034 15.509549066424368 88.216782569885254 14.044231265783308 95.907909870147705
leaf_count=745 4999 667 157 318 86 686 547 259 126 38 81 413 72 478
internal_value=2.6709e-05 0.00546386 0.0030534 0.00595562 0.0073558 0.00329947 0.0114375 -0.00404293 0.00915371 0.0327364 -0.00243957 0.019202 -0.0127745 0.0259023
internal_weight=1831.01 932.938 773.096 644.629 615.834 459.703 217.774 241.929 96.3146 31.1423 65.1724 156.131 145.615 113.23
internal_count=9672 4673 3928 3261 3104 2373 1111 1262 504 164 340 731 758 564
is_linear=0
shrinkage=0.05


Tree=22
num_leaves=15
num_cat=0
split_feature=11 8 25 4 20 12 17 18 3 27 6 17 4 1
split_gain=18.7338 18.1961 13.8522 10.1967 9.97823 9.80441 9.04599 9.86779 8.92775 11.0359 9.75567 9.84142 9.40043 9.76377
threshold=-0.0014088211468798 0.044288592128449857 0.010681163342345302 0.0014346277099487501 0.85095168445160418 -0.00027362782423589999 -0.50539666326247457 1.3042500090538536 1.2428736347493401 0.0032630621378897007 0.00040214802116270008 -0.60457317384423959 0.0018793905914775502 0.0060639500498091007
decision_type=2 2 2 2 2 2 2 2 2 2 2 2 2 2
left_child=-1 5 4 -4 8 -2 -6 -8 9 -3 11 -10 -11 -14
right_child=1 2 3 -5 6 -7 7 -9 10 12 -12 -13 13 -15
leaf_value=-0.014101409138306762 0.027733904030713422 0.038646711593604249 0.036401110240970959 -0.0072392362595643774 -0.017050941262200258 -0.005131621106828143 0.013535566307486677 -0.0049198685465479198 0.056999962937156923 -0.016001511465993559 -0.025703349302208585 0.0046374407231062871 0.0090751523403491824 0.048302240688571585
leaf_weight=218.41225482523441 22.427664265036583 75.261129215359688 13.339933857321737 202.33237245678902 40.122561290860176 738.38886691629887 231.79738594591618 104.51643121242523 9.9768023490905744 21.077796876430511 19.59583193063736 50.380349591374397 52.402337074279785 22.155052229762077
leaf_count=1379 129 376 67 1053 203 3854 1158 528 48 107 97 249 268 108
internal_value=-0.000398302 0.0014755 0.00653156 -0.00438442 0.0102857 -0.00412766 0.0051154 0.00780258 0.0179933 0.0244161 0.00413288 0.0140807 0.0129331 0.0212167
internal_weight=1822.19 1603.77 842.958 215.672 627.286 760.817 376.436 336.314 250.849 170.896 79.953 60.3572 95.6352 74.5574
internal_count=9624 8245 4262 1120 3142 3983 1889 1686 1253 859 394 297 483 376
is_linear=0
shrinkage=0.05


Tree=23
num_leaves=15
num_cat=0
split_feature=11 21 18 8 15 27 15 23 10 19 1 18 19 25
split_gain=25.427 15.7468 15.9393 13.068 11.4438 9.98335 12.1949 11.5434 13.1204 13.6444 9.69979 9.38454 15.5697 10.2649
threshold=-0.00091575313863459984 0.030904433675078204 0.61077597101390813 0.045059165036808006 0.00072767471983640011 0.0045512409006365504 0.0013595867171763501 0.0047729346764238513 0.51041666666666685 0.0039597828521149509 0.0060937735810039006 1.4266449238142627 0.0043305771930882506 0.011066576265939503
decision_type=2 2 2 2 2 2 2 2 2 2 2 2 2 2
left_child=-1 3 -3 -2 -4 7 11 10 9 -9 -5 12 -7 -14
right_child=1 2 4 5 -6 6 -8 8 -10 -11 -12 -13 13 -15
leaf_value=-0.014054648276290067 -0.0002831957753502704 -0.034032398933439519 -0.010921244710886964 0.03336227542717228 0.0074005086419495839 -0.0027327319065265287 0.047432639613036037 0.060898560460391021 -0.0099620142998453551 0.0058219554794050714 -0.00026195037718238894 -0.013268626795410417 0.034165625306471409 -0.0018515276717827327
leaf_weight=283.65692101418972 559.89036855101585 45.234330117702484 189.89625564217567 116.32197964191437 153.03805996477604 150.79729789495468 14.865048646926878 16.035495221614838 60.442414000630379 33.804821074008942 26.227985993027687 71.831960633397102 64.069662824273109 28.281252354383469
leaf_count=1784 2871 242 1032 539 813 728 70 77 304 170 121 365 331 149
internal_value=-0.000331994 0.00221843 -0.00647105 0.00517362 -0.00274722 0.0104085 0.0046555 0.017866 0.0056431 0.0243915 0.027217 0.00249297 0.00718461 0.0232342
internal_weight=1814.39 1530.74 388.169 1142.57 342.934 582.678 329.845 252.833 110.283 49.8403 142.55 314.98 243.148 92.3509
internal_count=9596 7812 2087 5725 1845 2854 1643 1211 551 247 660 1573 1208 480
is_linear=0
shrinkage=0.05


Tree=24
num_leaves=15
num_cat=0
split_feature=11 21 13 24 0 21 11 12 23 20 7 5 13 13
split_gain=15.5308 13.0234 12.8515 11.3533 10.8765 9.95779 7.81755 11.4762 7.57125 8.50866 7.43941 7.13047 7.1235 8.70594
threshold=-0.00074865773605329992 0.019315007093650052 0.015916697851806102 0.010545071651968203 0.0011796358216394503 0.042921197374169558 0.0052593826837481006 0.0060807009958620513 0.0092470817919818506 1.1663050350431368 -0.0043079105750635487 0.0021010092575731005 0.0046385091692165504 0.0012831377478459002
decision_type=2 2 2 2 2 2 2 2 2 2 2 2 2 2
left_child=8 4 3 -3 12 6 7 -5 9 -1 -4 -8 13 -2
right_child=1 2 10 5 -6 -7 11 -9 -10 -11 -12 -13 -14 -15
leaf_value=-0.019582818399980776 -0.018038674319396788 -7.1443609041199323e-05 -0.0097895488248484971 -0.018895807968074069 0.015536102499316411 0.038508145471777958 0.0081511675439390023 0.060249332526099653 -0.0011256608233124231 0.026741243972702739 0.052532642953967534 -0.027419932744874084 -0.01725814434045507 0.015983890384708214
leaf_weight=178.36658389866352 25.34337554872036 958.80058082938194 6.2613919526338604 10.80768369138241 250.22434873878956 7.2892297655344001 15.813087046146391 6.5474653691053382 122.89787949621677 9.6440640091896039 16.113335356116295 103.9864436686039 48.072163298726082 65.111650571227074
leaf_count=1124 131 4983 33 58 1151 40 84 34 774 58 83 560 232 316
internal_value=-0.00063581 0.00145586 -0.00127062 -0.00204613 0.00933332 -0.0150633 -0.0181685 0.0126185 -0.0107959 -0.0170777 0.0354196 -0.0226961 -0.00190194 0.00635855
internal_weight=1825.28 1514.37 1125.62 1103.24 388.752 144.444 137.155 17.3551 310.909 188.011 22.3747 119.8 138.527 90.455
internal_count=9661 7705 5875 5759 1830 776 736 92 1956 1182 116 644 679 447
is_linear=0
shrinkage=0.05


Tree=25
num_leaves=15
num_cat=0
split_feature=11 21 12 26 8 7 20 11 20 21 8 20 20 22
split_gain=15.7793 12.5277 10.1975 11.9424 10.1702 8.54644 14.2728 14.31 13.5402 13.2136 11.3799 11.1626 7.8875 16.6796
threshold=-0.00052869289482649988 0.015529007574311001 0.007437455167661651 0.0078606845991801514 0.044288592128449857 -0.0058249940705132489 0.97641719322322162 -0.0022099714003581497 0.83274106914519674 0.018398290815138201 0.054978315452079408 0.77157362080525593 1.0809590412380465 0.06403810894962976
decision_type=2 2 2 2 2 2 2 2 2 2 2 2 2 2
left_child=5 2 3 -2 12 9 8 10 11 -1 -8 -7 -3 -14
right_child=1 4 -4 -5 -6 6 7 -9 -10 -11 -12 -13 13 -15
leaf_value=0.050395284947681175 0.015813572654915516 -0.0073444835833162986 0.06747784599023475 -0.034532991238235056 0.0043565395481516053 -0.021180814068543209 0.075197326583872653 -0.0098863840499095312 -0.036864075563821486 -0.0047441857632119456 0.0042004886138022153 0.0093429796485573098 0.019409030656186252 -0.019277362098994458
leaf_weight=12.38155062496662 146.13405592739582 483.12043465673923 7.7635254859924308 11.868497893214224 707.73192839324474 83.409031853079796 9.9125426709651965 46.566883996129036 77.293294861912727 57.073725834488869 11.951975956559179 45.702900409698486 83.783013910055161 40.566338285803795
leaf_count=78 665 2527 34 54 3577 523 60 280 489 359 76 288 434 227
internal_value=-0.000319882 0.00192308 0.0148332 0.0118383 0.000285876 -0.00994558 -0.0138958 0.00582927 -0.0204321 0.0056611 0.0382688 -0.0103873 -0.00445601 0.00673531
internal_weight=1825.26 1480.97 165.766 158.003 1315.2 344.292 274.837 68.4314 206.405 69.4553 21.8645 129.112 607.47 124.349
internal_count=9671 7518 753 719 6765 2153 1716 416 1300 437 136 811 3188 661
is_linear=0
shrinkage=0.05


Tree=26
num_leaves=15
num_cat=0
split_feature=11 23 23 20 22 19 10 11 24 24 19 17 2 20
split_gain=15.7481 10.2388 9.46084 8.31132 12.7175 11.353 12.0931 8.40103 10.5924 9.54475 9.5578 12.2989 8.22849 8.22531
threshold=-0.0013698267541315998 0.010064556945906002 0.0093423708567118031 0.80769066843810611 0.065797999669366863 0.0073463253947353008 0.51041666666666685 4.5814119629228329e-05 -0.00069380202168609995 0.010797678695825803 0.0043907290585475508 -0.66625652003425129 0.0016564036143675001 1.1281322174158539
decision_type=2 2 2 2 2 2 2 2 2 2 2 2 2 2
left_child=2 3 13 7 5 -5 -7 8 -2 10 11 -9 -4 -1
right_child=1 -3 12 4 -6 6 -8 9 -10 -11 -12 -13 -14 -15
leaf_value=-0.023686706535980442 0.015775501215231184 -0.009797613310695754 0.020287860639020352 0.0034596254512288464 -0.0083783981416630359 0.073702189513889974 -0.0046462846950719189 0.042307921473814729 -0.020872448114137132 -0.020641055056436351 0.028576090284838221 0.0058023628083179136 -0.010766571993488143 0.026138218953982047
leaf_weight=121.87101043760777 33.423239201307297 154.49411971867085 32.722556889057159 736.99200820922852 256.98289389908314 10.920743077993395 8.2010667920112592 24.764023005962372 45.263675808906555 19.466152623295784 89.616379275918007 226.24532890319824 57.054288625717163 8.0738322585821134
leaf_count=803 188 848 202 3698 1387 60 45 121 249 101 461 1100 372 49
internal_value=0.000680284 0.00239961 -0.0118435 0.00370337 0.00121046 0.00447622 0.0415387 0.0094434 -0.00530316 0.0126716 0.0146302 0.00955751 0.000651189 -0.020415
internal_weight=1826.09 1606.37 219.722 1451.88 1013.1 756.114 19.1218 438.779 78.6869 360.092 340.626 251.009 89.7768 129.945
internal_count=9684 8258 1426 7410 5190 3803 105 2220 437 1783 1682 1221 574 852
is_linear=0
shrinkage=0.05


Tree=27
num_leaves=15
num_cat=0
split_feature=11 22 13 18 20 7 3 9 2 6 10 3 7 6
split_gain=16.006 8.43313 11.1798 10.1738 8.37332 12.0797 9.03714 8.54036 7.72427 11.1279 7.4416 9.47903 10.8963 8.96561
threshold=-0.00091575313863459984 0.065797999669366863 0.015916697851806102 1.9848483730434998 0.80769066843810611 -0.0006346117609079999 1.4127784599651341 21.500000000000004 0.0020340979169240505 -0.00055150501179714983 0.34375000000000006 1.0775999416156814 -0.010995567709686448 -0.00026749584433949993
decision_type=2 2 2 2 2 2 2 2 2 2 2 2 2 2
left_child=-1 2 -2 4 5 10 -6 -7 -8 -10 11 12 -3 -14
right_child=1 3 -4 -5 6 7 8 -9 9 -11 -12 -13 13 -15
leaf_value=-0.011370944573098059 0.0036168016079883947 0.056281351146298279 0.051024355331362896 -0.036412699696303681 -0.010743008078390445 0.06420588491737661 -0.014236806909873466 0.0066675374967774675 0.073049216636980774 -0.0082792120185093288 0.014708039523875047 -0.032131709392640699 -0.013464195965513712 0.03497539295077199
leaf_weight=273.43256236612797 1064.843360543251 7.2312270253896704 11.590680330991743 21.805279150605202 244.16545543074608 12.986009478569033 9.8422264903783816 12.446458354592322 9.3007836341857928 6.7951824814081183 58.84274885058403 27.211886629462242 52.268223434686661 10.654541403055189
leaf_count=1768 5316 38 58 122 1327 65 53 63 47 35 303 141 270 53
internal_value=-0.00024054 0.00172904 0.00417415 -0.00382607 -0.0021762 0.00610479 -0.00774703 0.0373646 0.0198071 0.0402391 0.000810047 -0.0076533 0.00215972 -0.00484321
internal_weight=1823.42 1549.98 1076.43 473.55 451.745 181.641 270.104 25.4325 25.9382 16.096 156.209 97.3659 70.154 62.9228
internal_count=9659 7891 5374 2517 2395 933 1462 128 135 82 805 502 361 323
is_linear=0
shrinkage=0.05


Tree=28
num_leaves=15
num_cat=0
split_feature=11 8 21 2 19 19 8 6 20 25 25 19 3 20
split_gain=14.2064 10.8647 14.8478 10.0473 9.99031 11.46 9.04175 8.2901 12.4828 10.4938 16.3585 11.4153 11.0288 14.6852
threshold=-0.0013698267541315998 0.044288592128449857 0.017481547309516152 0.0058483615447487503 0.0029550451302860002 0.0026828863798929506 0.064630896291201154 -0.0024831550511871998 0.79301672186165872 0.0053355353056641509 0.009641111161574652 0.0036120461617806005 1.1389170626666134 0.92685846338631717
decision_type=2 2 2 2 2 2 2 2 2 2 2 2 2 2
left_child=-1 -2 4 7 5 6 -3 9 -9 11 -11 -4 -12 -14
right_child=1 2 3 -5 -6 -7 -8 8 -10 10 12 -13 13 -15
leaf_value=-0.01279262398719387 -0.0035735089172629778 0.06348182276092916 0.039104026765043112 0.040808130071596734 0.034681246638434693 -0.021643132780297621 0.011393625477723192 0.012023424994339293 -0.0060876976450611204 0.052249782247943577 -0.018955951080721851 -0.021543187264358908 -0.016005246592978414 0.058297061991569268
leaf_weight=216.98109564185143 746.20620021224022 8.584152936935423 9.1075596660375577 14.864912897348402 58.373396560549736 23.032871201634407 70.165303438901901 121.36253459751606 426.89773389697075 28.948553383350372 23.640418097376823 32.687758281826973 10.864624544978144 14.828936725854872
leaf_count=1429 3925 40 44 73 268 107 316 606 2209 144 122 170 56 75
internal_value=-0.000822451 0.000818535 0.00470426 0.00148177 0.0183565 0.00874765 0.0177964 0.000547431 -0.00206404 0.0123896 0.0230897 -0.0077227 0.00528076 0.0274555
internal_weight=1806.55 1589.56 843.359 683.203 160.156 101.782 78.7495 668.338 548.26 120.078 78.2825 41.7953 49.334 25.6936
internal_count=9584 8155 4230 3499 731 463 356 3426 2815 611 397 214 253 131
is_linear=0
shrinkage=0.05


Tree=29
num_leaves=15
num_cat=0
split_feature=23 15 0 0 18 22 13 6 23 18 20 0 18 20
split_gain=15.6173 12.1599 11.5708 11.3528 10.9721 9.34748 9.11374 9.05502 9.57399 11.5426 9.54912 9.02003 8.16286 8.10179
threshold=0.0057920140858528013 0.00065864739037575012 0.00084765282270755015 0.0016177853628251502 1.9333457598930497 0.057046482930357807 0.0050866935693968012 0.0013050968766581002 0.0025882082812433505 0.91261129097862792 1.1040568943609335 0.00091409902597395013 1.1847144628650128 0.83438238094458705
decision_type=2 2 2 2 2 2 2 2 2 2 2 2 2 2
left_child=4 3 6 -2 7 -5 -3 10 9 -9 -1 -12 -10 -4
right_child=1 2 13 5 -6 -7 -8 8 12 -11 11 -13 -14 -15
leaf_value=0.0027444925085706854 -0.0030252849675093652 0.055652914511448597 0.011898158145600636 -0.030580826250646516 -0.019128538705981586 -0.0092571883456023085 -0.010049779733705015 -0.035914894118035307 0.084124258561961374 0.038950102533127182 -0.014070273748333681 0.022614508430832556 0.0087566965541025551 -0.0048465556163675306
leaf_weight=735.16119638085365 279.76968657970428 16.07006232440472 100.56728483736515 89.381097480654716 44.676517531275749 122.18821500241756 7.2477829605340949 8.2516613751649874 9.8356648534536344 10.641022711992262 18.936965450644493 113.34373587369919 5.7550513446331015 249.15985387563705
leaf_count=3668 1596 92 577 512 232 706 39 41 49 53 95 557 30 1373
internal_value=0.000360522 -0.00449575 0.00230764 -0.00965537 0.00479507 -0.0183672 0.0356574 0.00599999 0.0307705 0.00609001 0.00498099 0.0172966 0.0585083 -1.12624e-05
internal_weight=1810.99 864.384 373.045 491.339 946.602 211.569 23.3178 901.925 34.4834 18.8927 867.442 132.281 15.5907 349.727
internal_count=9620 4895 2081 2814 4725 1218 131 4493 173 94 4320 652 79 1950
is_linear=0
shrinkage=0.05


Tree=30
num_leaves=15
num_cat=0
split_feature=23 15 0 26 17 17 2 5 4 27 8 10 24 13
split_gain=15.0568 16.0133 15.7251 12.083 9.77334 9.22963 9.02792 12.5465 8.78362 8.55867 15.5108 8.41797 8.31805 9.55845
threshold=0.0054471957100827506 0.0008805920243726001 0.0014420811781854003 -0.0037645100743846998 -0.41604416285784812 0.81740827070705901 0.00056483578752130009 0.004019319792109401 0.0013500132207612504 0.006012717689647451 0.014214689530903402 0.11458333333333331 -0.0054641293221109992 0.0039541673076562509
decision_type=2 2 2 2 2 2 2 2 2 2 2 2 2 2
left_child=9 2 3 5 8 -2 7 -3 -5 10 -1 -11 -6 -14
right_child=1 6 -4 4 12 -7 -8 -9 -10 11 -12 -13 13 -15
leaf_value=-0.0030917956234301981 0.0083133756989812058 0.091004493148849341 -0.015158353603955524 0.037952983131324121 0.044070797552913155 0.053328190795404157 0.0042002775039111399 0.0030966546129344401 -0.0039710454811620281 0.03248405370868284 0.015903570627081379 -0.0018463386253242142 -0.02493101477093157 0.0020022689431568644
leaf_weight=159.58209642767906 93.290477469563484 6.3697149604558936 355.46211764216423 18.843664646148682 5.1231770664453498 12.073932722210882 241.48358123004436 9.1982174962759 33.284793958067894 17.739341989159584 326.28839536011219 377.92187735438347 94.678880527615547 50.025257840752602
leaf_count=805 539 34 2039 105 30 67 1336 49 188 90 1565 1915 542 263
internal_value=0.000565793 -0.00390723 -0.00801267 0.000274744 -0.00688018 0.0139246 0.00666826 0.0423866 0.011613 0.00523231 0.00967109 -0.000229133 -0.0133487 -0.0156701
internal_weight=1801.37 919.834 662.782 307.32 201.956 105.364 257.052 15.5679 52.1285 881.532 485.87 395.661 149.827 144.704
internal_count=9567 5192 3773 1734 1128 606 1419 83 293 4375 2370 2005 835 805
is_linear=0
shrinkage=0.05


Tree=31
num_leaves=15
num_cat=0
split_feature=11 8 22 19 20 22 26 17 1 16 8 20 15 1
split_gain=14.8574 11.8619 11.0025 9.42566 8.68401 13.3541 9.50371 8.31209 10.2535 9.17803 10.8573 8.02452 7.89788 9.72693
threshold=-0.0013698267541315998 0.045059165036808006 0.069762208779017412 0.0075726162868923509 1.1663050350431368 0.035028186992057252 -0.0059485663113402988 -0.64907740403142744 0.0048627012826985005 0.73708400932648732 0.0033260225472280503 1.3086504839788426 0.00066831802740850005 0.0036332373349715003
decision_type=2 2 2 2 2 2 2 2 2 2 2 2 2 2
left_child=4 2 3 7 6 -6 -1 8 -2 10 -9 12 -3 -14
right_child=1 11 -4 -5 5 -7 -8 9 -10 -11 -12 -13 13 -15
leaf_value=0.0066840332733430624 0.044144611312785707 0.0024411820856752591 -0.011424173775585029 0.046730902318391138 0.06101593059482327 -0.028089676144441481 -0.020507059941579274 0.00037980964650725967 -0.0091054822880884852 0.0019151991708732806 -0.035726967982348846 -0.01328430979984397 0.028871111241455333 0.008511971022524047
leaf_weight=39.84650057554245 21.815888687968254 411.85887485742569 240.07452908158302 10.265578031539915 8.6886959522962552 6.6287215650081626 156.55951049923897 44.981528207659721 14.487384557723997 391.85681557655334 37.727781757712364 49.732455268502235 72.006286978721619 307.61434961855412
leaf_count=256 113 2087 1313 57 51 42 1060 234 76 2026 197 262 357 1502
internal_value=0.000282187 0.00192925 -0.00259143 0.00149169 -0.012134 0.0230966 -0.0149847 0.000493125 0.0232199 -0.00129059 -0.0163203 0.00601821 0.00724631 0.0124394
internal_weight=1814.14 1602.42 761.21 521.135 211.723 15.3174 196.406 510.869 36.3033 474.566 82.7093 841.212 791.48 379.621
internal_count=9633 8224 4016 2703 1409 93 1316 2646 189 2457 431 4208 3946 1859
is_linear=0
shrinkage=0.05


end of trees

feature_importances:
atr_pct_ratio96=42
pre_range168=33
ext_up=32
pre_range48=28
ma_spread_pct=22
full_spread=20
spread_pos96=20
ret_48=20
fast_slow_gap=18
spread_mean24=18
slow_slope_12=18
vol_ratio_mean8=16
atr_pct=16
close_vs_ema120=15
drawdown24=15
full_ratio_min48=13
spread_mean8=12
spread_chg8=12
close_vs_ema60=10
volume_z=10
ret_24=10
ret_4=9
ret_12=9
spread_chg24=8
dense_frac48=8
dense_run_len=7
volume_ratio=7

parameters:
[boosting: gbdt]
[objective: binary]
[metric: binary_logloss]
[tree_learner: serial]
[device_type: cpu]
[data_sample_strategy: bagging]
[data: ]
[valid: ]
[num_iterations: 600]
[learning_rate: 0.05]
[num_leaves: 15]
[num_threads: 0]
[seed: 42]
[deterministic: 0]
[force_col_wise: 0]
[force_row_wise: 0]
[histogram_pool_size: -1]
[max_depth: -1]
[min_data_in_leaf: 30]
[min_sum_hessian_in_leaf: 0.001]
[bagging_fraction: 0.8]
[pos_bagging_fraction: 1]
[neg_bagging_fraction: 1]
[bagging_freq: 1]
[bagging_seed: 400]
[bagging_by_query: 0]
[feature_fraction: 0.8]
[feature_fraction_bynode: 1]
[feature_fraction_seed: 30056]
[extra_trees: 0]
[extra_seed: 12879]
[early_stopping_round: 0]
[early_stopping_min_delta: 0]
[first_metric_only: 0]
[max_delta_step: 0]
[lambda_l1: 0]
[lambda_l2: 1]
[linear_lambda: 0]
[min_gain_to_split: 0]
[drop_rate: 0.1]
[max_drop: 50]
[skip_drop: 0.5]
[xgboost_dart_mode: 0]
[uniform_drop: 0]
[drop_seed: 17869]
[top_rate: 0.2]
[other_rate: 0.1]
[min_data_per_group: 100]
[max_cat_threshold: 32]
[cat_l2: 10]
[cat_smooth: 10]
[max_cat_to_onehot: 4]
[top_k: 20]
[monotone_constraints: ]
[monotone_constraints_method: basic]
[monotone_penalty: 0]
[feature_contri: ]
[forcedsplits_filename: ]
[refit_decay_rate: 0.9]
[cegb_tradeoff: 1]
[cegb_penalty_split: 0]
[cegb_penalty_feature_lazy: ]
[cegb_penalty_feature_coupled: ]
[path_smooth: 0]
[interaction_constraints: ]
[verbosity: -1]
[saved_feature_importance_type: 0]
[use_quantized_grad: 0]
[num_grad_quant_bins: 4]
[quant_train_renew_leaf: 0]
[stochastic_rounding: 1]
[linear_tree: 0]
[max_bin: 255]
[max_bin_by_feature: ]
[min_data_in_bin: 3]
[bin_construct_sample_cnt: 200000]
[data_random_seed: 175]
[is_enable_sparse: 1]
[enable_bundle: 1]
[use_missing: 1]
[zero_as_missing: 0]
[feature_pre_filter: 1]
[pre_partition: 0]
[two_round: 0]
[header: 0]
[label_column: ]
[weight_column: ]
[group_column: ]
[ignore_column: ]
[categorical_feature: ]
[forcedbins_filename: ]
[precise_float_parser: 0]
[parser_config_file: ]
[objective_seed: 16083]
[num_class: 1]
[is_unbalance: 0]
[scale_pos_weight: 1]
[sigmoid: 1]
[boost_from_average: 1]
[reg_sqrt: 0]
[alpha: 0.9]
[fair_c: 1]
[poisson_max_delta_step: 0.7]
[tweedie_variance_power: 1.5]
[lambdarank_truncation_level: 30]
[lambdarank_norm: 1]
[label_gain: ]
[lambdarank_position_bias_regularization: 0]
[eval_at: ]
[multi_error_top_k: 1]
[auc_mu_weights: ]
[num_machines: 1]
[local_listen_port: 12400]
[time_out: 120]
[machine_list_filename: ]
[machines: ]
[gpu_platform_id: -1]
[gpu_device_id: -1]
[gpu_use_dp: 0]
[num_gpu: 1]

end of parameters

pandas_categorical:[]
